2708 20
1358 1.8073206 -4.7630396 -8.189247 -1.0479428 -0.018785177 6.2526326 -0.079278864 8.514112 -5.8100595 1.1845865 0.083201975 4.8129992 3.710401 5.343977 1.494637 -5.390572 -1.3223877 -1.505273 1.0398835 5.3804216
1701 4.0430126 7.6636662 1.6451758 -5.9455795 -1.5481672 -7.280189 -3.2657104 3.9106627 5.5854034 -5.3123484 6.5292716 3.8924766 1.8384161 7.4969106 8.998653 6.9406023 -3.0845256 2.2690153 3.5351326 -1.0725559
1986 4.7475905 -3.3634994 0.41617307 3.3183122 -4.1648164 -6.9733977 6.2576113 2.3698144 3.48847 -3.739409 7.044153 2.740911 -0.9507342 5.8923473 11.61533 1.5675976 -6.703054 4.1669827 -0.17090386 -0.9001441
306 1.3308054 3.0341432 -6.404209 -4.7702384 -3.4108906 -0.4328219 5.3318205 1.6076956 9.183924 -6.141222 4.8340807 -0.47547927 6.6741576 8.855469 -4.163643 -0.92384285 5.386453 2.1851723 -2.8217025 -3.6959167
1810 1.6223359 9.477191 -0.14959887 -0.9514876 -9.455548 -3.1760135 5.7591906 3.292394 8.245864 -6.128369 -3.1675017 0.8554027 -0.920555 -0.7670452 9.092699 1.3259801 1.3990215 8.803397 0.17236026 3.7978005
2034 2.0391965 10.109364 3.3065705 -0.80626374 -2.3920045 -7.234102 8.127924 -7.4128914 2.0896387 -6.809537 -3.5981238 8.521991 7.6660776 -1.7596041 2.898175 -1.9236009 -5.7512937 5.3564534 -0.7509036 -6.0286436
1623 -7.4841857 -0.9445849 -5.0147276 1.2058536 -1.6971099 -5.266881 2.6447072 1.5947 5.9684734 -9.168975 6.5739965 -3.0807526 3.6248245 5.660912 -1.7153409 -5.435363 10.88757 -0.8672153 -3.2669563 -7.0323524
88 8.10849 -9.412111 -1.5164957 -2.2233694 -7.4203 -3.0915387 6.698859 2.9172635 -0.6051191 -3.8477206 -6.917125 -1.50698 5.1277976 -4.3186245 -6.735366 -1.4398601 -7.8893876 -0.5075573 6.121226 -3.558628
598 7.327877 3.922271 -0.646781 -3.3108737 -1.8259362 -2.2960556 -4.5732565 1.8851147 -0.5211296 -6.67795 -2.5667684 -5.3251314 1.1546496 2.0005543 16.565388 3.6576416 -3.93049 4.290864 5.661825 -2.473991
1013 -2.3540573 -9.878493 -6.0942864 -2.4833627 -9.605329 -4.268392 -6.9190316 4.9766617 6.4896445 -14.31007 1.2109998 -3.890161 0.47457144 -3.0507793 -7.319911 5.431028 -2.952068 -4.1620703 0.97859776 6.1325526
1914 -6.5997725 -10.920128 5.4778814 -2.5620825 -4.4397535 -3.6127229 -1.0947384 -4.1907783 -5.9848623 -7.6735835 0.96196055 -14.170439 7.1769714 -5.7556114 -6.166493 4.1951294 1.3857634 0.40670145 1.0827281 1.8420721
733 7.8199778 7.4739113 10.957693 5.9088807 -8.552489 -4.8654575 11.380333 1.0482051 -2.149266 -6.5525017 3.7495313 1.2905465 -6.039123 -5.3161254 0.4255856 -2.3912683 -1.2796102 2.355102 1.6549081 1.3314365
1441 3.88344 -5.5770893 3.958432 -11.111591 1.0593704 6.7170496 -1.600474 0.2315168 -4.0117917 -2.524685 4.7320423 -10.54029 -9.43023 -4.7711945 -6.0731554 -5.0159674 -0.07775166 -0.04154692 -1.1165566 -5.78793
2045 0.123002455 4.8775177 -6.39556 -1.3397918 -3.6694326 -1.9269315 -1.0913147 7.78457 3.2218235 -12.750866 4.834615 0.4577101 8.756343 7.850079 2.6303232 5.9887557 0.48903915 -0.08817369 -5.539505 -0.16877913
109 -4.2161593 2.036278 -2.1728895 -4.8605204 3.3182287 0.7697662 -4.4119577 4.7998857 10.658681 -6.584285 9.168124 -3.2104993 -0.6267271 7.3370857 1.275069 0.98434275 -0.13477853 -1.948137 -7.210322 -6.476778
1072 3.3331985 -2.398838 -11.846424 -9.681615 7.2305923 2.1164155 3.7490258 4.4518247 6.105701 -0.7074165 1.0733622 2.4441953 6.8138986 6.6954665 0.5223734 -3.538668 6.3757486 2.6682568 -8.885034 0.75221145
1542 5.5820446 10.796132 -6.3751745 -2.4738889 -1.5480939 -4.471919 -1.1708307 -4.837066 3.084252 2.473672 1.50333 -3.4367042 -3.1787653 0.30857313 4.5898333 10.702484 -2.0425353 -3.0189574 9.591396 -4.722376
1224 -7.1143622 -16.408995 2.56727 -0.23366834 -7.2920537 -1.9543262 -0.8222762 1.5646054 0.67494214 2.461174 0.8664384 -3.7527428 -1.2795914 -3.3460088 -10.432119 5.94027 -2.6981726 -1.2004493 -7.541595 -1.352344
1042 -7.7869287 -1.9906352 3.7382078 1.4814237 -1.7229191 -2.480732 -6.967875 -3.7821321 -1.3697441 -1.3848516 -7.434078 3.9226162 -9.00759 -9.608138 3.646912 0.63198686 9.064231 -0.1956259 -9.18435 3.6818163
1169 0.49424675 -5.155832 -12.2734785 -1.6091216 -0.4381616 4.530446 -3.3027635 -1.3162748 -8.729114 0.53801644 1.6797907 0.9519844 0.36767006 -0.7122351 0.83158636 -10.210131 3.0934427 2.855166 -0.7795963 4.6384
415 1.3569925 -8.716762 -4.474865 -2.2449796 -9.198257 -4.471818 2.4815361 4.6699386 4.854934 -7.638019 -6.5666356 -2.469027 -6.6456146 -6.4758615 -2.3084624 -1.9555147 -2.8226955 -3.9704533 10.094667 -2.4403133
1131 -11.579344 -7.311549 -1.0214797 -9.349823 -10.610371 -1.1754926 1.7754232 -0.3311603 1.8040812 -1.6763142 -0.6841432 2.9662187 1.4183534 -2.750937 -6.0793076 1.1452144 -7.158586 7.69539 -2.759641 2.409085
2182 -5.8330307 -1.9351982 -5.005383 -0.63416445 -0.8024037 0.955265 3.8962293 0.67581415 4.3658504 -9.116888 -4.797564 3.1982844 -9.447735 -11.42643 -5.45344 -5.929109 6.417852 -2.397916 3.936275 0.476943
95 -2.90253 -11.190501 -4.2656446 3.5364282 -1.2350553 2.8373742 -1.0683917 -8.021169 3.5861244 -7.5275745 -5.0463824 -2.4478557 -6.400444 -7.5360603 2.3528192 -4.8032823 5.669363 1.3844509 -2.9049182 4.4062357
118 -1.7774384 -5.3583803 -5.1006594 -12.671158 -5.919326 1.5049797 -6.492866 -1.7997487 2.4935122 -3.1144006 -5.0766726 -4.682999 3.3872082 0.37638766 -10.791741 3.6311104 5.2056475 1.0829103 -0.15431803 -7.4177933
1692 4.805637 -3.2363296 8.030719 5.2677193 -4.8107314 -5.3271794 6.183442 -4.256295 2.0992734 4.9585805 -1.2195776 -3.9173353 -2.4129398 -2.5987108 5.0128345 -6.7728024 8.167195 4.1174154 -4.047723 6.0507183
1483 2.6287673 0.58366275 -8.381649 -3.0851254 4.441431 6.8365803 3.41453 11.729782 2.81767 1.688218 1.1409479 -3.0527844 5.601437 5.515468 -1.5375191 -3.4702091 8.591774 0.29975697 3.302111 -0.41839448
1416 -4.007893 -9.167235 4.2714806 1.7160761 -7.418523 -7.1452274 -4.1565695 -0.41585544 -3.1681974 -6.814657 -7.3143435 7.8556027 -0.66861737 -6.9585423 -1.9393032 -7.3013635 2.901872 1.7566684 -6.3391557 -1.7331871
963 -1.2828536 0.9547111 3.6024804 4.7374454 -1.3811182 3.2260554 -3.6223283 0.5874055 7.050792 -0.10028971 3.939106 9.83346 -5.503834 0.5275232 -8.978005 2.311374 -0.59761727 -1.872052 -1.7248234 -9.628812
661 -1.413736 -1.4318144 4.9107714 -4.8505597 -7.5657573 0.44461662 1.0104426 7.031806 7.3300676 -1.5760021 5.0287933 -13.034036 5.697544 2.0767517 -6.529394 -3.7881615 -4.30889 4.9038134 1.0040994 -7.289905
436 0.27135804 -7.2961226 0.3358088 -7.5013027 -8.135597 -8.146904 5.8490605 -3.283919 7.471714 7.1057453 -1.5097474 0.86280435 -0.6906532 -6.021699 -8.592414 -4.173809 -8.054775 4.366676 -2.2454653 -0.5940878
429 2.7893023 7.229791 9.119014 2.9386575 -0.9210024 -3.049367 10.3519125 -9.479537 -0.12061535 0.61148614 -2.022864 -3.002325 -1.6624368 -4.759961 4.027351 1.9249232 1.768735 5.3294945 -10.955406 -7.794687
973 1.7940375 -13.843456 -1.1372863 -5.8667417 -1.9646583 -2.6252143 0.9933156 5.640822 11.551343 -5.8219414 1.9433053 -5.4905543 5.637094 1.5442526 -8.289944 4.8466573 3.0623715 3.4556816 -4.726973 -4.4755807
1703 -0.8570856 5.044125 7.1681886 7.8252535 -2.9162118 -2.4904191 2.7332358 -5.011557 -2.696869 -0.1020923 4.630615 11.340727 -5.216587 -2.704364 -4.126863 -2.9675987 -7.109987 -2.2450533 5.418476 -8.477979
1257 -0.48897392 3.14203 5.610251 9.325666 -0.9495135 1.0717363 -1.0264025 -6.605448 -4.2117505 -1.5827693 -1.1641662 3.5059595 3.7776306 4.2512608 2.9777095 5.701474 8.745081 -4.3267365 4.1812634 -1.0475501
2155 -10.8584795 -8.1502695 0.8088505 3.0912926 -4.5749702 -0.70888 0.74246615 -7.0213327 2.166526 1.8832657 -2.492858 3.177032 2.118679 -7.9728384 -12.248455 1.2386067 6.2149415 5.3627305 -7.6609607 1.0788922
1103 0.6209699 -9.706703 -2.8037307 3.8080919 6.2618465 4.2053833 -2.3486962 3.6990173 -6.901432 1.5277292 1.7716607 6.8010716 2.3709605 -1.1818496 -4.5854864 -4.6037264 4.5684443 -4.942136 2.6957104 7.9408474
1413 0.8741926 11.9860935 -3.762504 -0.80889803 0.6196332 3.1242037 -1.5497215 -2.3654325 3.8589406 1.1207826 -0.36894128 -5.873085 -4.028906 -5.467811 -0.065129526 5.903672 -0.50668395 -3.3288405 5.757442 -1.8379594
310 4.244346 8.866169 -3.856577 -4.0298395 -7.9109473 -3.4589205 5.9083138 -0.6813914 2.7058713 1.7488954 -2.2943137 2.7534795 -4.393674 -0.81715995 4.7758803 9.042445 0.2267 1.0270967 0.9308324 6.454209
2248 -0.7358671 1.7571341 9.829535 11.473636 1.2471294 -1.798693 -3.0226629 -1.0225682 -0.49242207 -1.4759125 -4.0518436 2.159967 4.2678456 3.9742413 4.501257 5.321514 7.544949 -11.039847 0.95005894 -0.23061775
1628 -1.3996278 -0.3692371 -2.16018 1.3484443 -6.7841816 -1.2323765 -1.1817349 -7.356283 2.3679318 -3.9417412 -8.136156 3.0650983 -9.478545 -4.492179 -3.4046178 -3.440148 10.1334505 -8.024939 -2.970291 3.5537052
1765 6.7711697 -0.0100146225 -8.679004 0.39984578 1.4385062 1.9853638 2.896415 7.056523 -6.266899 -4.657048 3.2057965 2.0141604 6.1233068 -0.32028598 3.1214914 -8.22336 -3.246408 -0.54674935 1.9881865 11.021856
2001 5.598349 -0.85752094 2.7457588 4.0860887 -5.346569 -7.0534854 6.7411346 -6.288202 -0.74653554 7.7301364 -1.3334334 -3.614672 -3.8202536 0.31782424 11.382538 0.4642402 1.8307527 5.9706903 -5.8264956 -3.568779
507 0.50909525 11.326243 -2.5844648 -3.6365566 1.6295521 0.83866096 -3.4265687 -6.569388 6.5342193 1.3873254 0.9155553 -2.1382747 -2.564579 -4.331155 -1.695825 1.8021703 -2.095929 -3.7107198 8.771228 1.054945
2394 2.8866675 -7.2541475 2.9558198 0.7550759 -2.5635927 -7.0863743 0.5402462 6.1347976 -0.06414273 -1.0285395 -7.629167 -4.7366667 3.2518747 -11.358855 -2.68412 6.3195 -4.6589413 -3.8477206 8.643156 3.7598317
1624 -5.01583 6.0678024 -0.29219076 1.2354363 0.21385874 -2.713985 1.2504221 4.0314507 7.9294977 -1.3690523 10.988603 5.310006 -4.4698772 4.454205 -5.491079 -1.1332909 9.489447 -1.3439034 -9.656258 -4.0646467
1725 -1.5888337 -1.6778684 -11.525463 -6.448908 4.6250324 5.3001633 5.0760093 -0.47392443 -7.084854 2.150715 -7.382408 5.0435166 4.253275 -0.6146402 3.476995 -4.1575227 2.7239032 1.3765334 -4.9673038 3.6215355
1309 -0.4113117 -5.636783 -4.7537766 0.8895381 -10.790744 -5.025884 4.157483 8.232299 -2.2052922 -2.234078 -3.845568 -1.2312816 2.2660344 -4.5245934 -8.447073 -5.97744 -5.3018456 -4.041021 2.4650114 -2.9028738
2671 -5.6758766 -0.41399044 4.4782653 12.048069 0.58239263 0.3629163 0.12717047 -0.13669777 -3.5118978 -2.2646544 -1.4102808 5.924707 5.9356227 1.6860466 4.7304196 9.282811 6.9107947 -0.6792612 4.5009894 -2.2485473
1950 5.0665793 5.571614 -3.3352847 -6.138741 -4.160315 -3.1559815 4.5746846 -4.1187024 3.4249935 2.3257828 -2.1593533 4.4128203 -2.1339107 0.45710343 4.051034 8.657405 0.058035344 0.72434527 4.844573 6.802855
1894 -0.94904107 1.8271984 0.048205677 -1.6416419 -3.7073288 -3.0084677 -1.8181192 -4.191071 3.4680197 -0.195193 -1.7782786 11.702102 7.8240347 2.7233114 4.1221867 -0.12543118 -9.922484 3.9534373 3.2041245 5.4526854
687 0.71454936 -0.06190824 -9.565807 -7.820817 4.5075874 6.1120725 -3.1580489 8.725449 -4.321926 -2.1989017 -4.2539926 4.1862316 4.8592873 -3.119068 4.360255 -0.18083818 -7.1021247 3.7225518 2.724799 3.2386413
2367 -3.544501 0.40712404 -2.9203157 -3.9162002 1.4343897 -4.745096 -6.529065 1.2616558 -2.7510176 1.4539626 7.8830247 -0.45817968 0.07531414 -7.1815248 -4.9000025 3.0417652 2.4769697 2.3321908 8.740462 4.7885246
1973 -12.325326 -12.493849 -2.6821182 -0.08835524 -3.9144082 -4.074435 -2.057787 0.06275952 3.3627405 2.2714653 -5.9850082 -10.113707 3.2539866 -4.3677077 -1.6299899 5.034302 -1.1481364 -3.8460796 5.993076 -1.0195363
1229 4.855536 1.7640705 -6.1132545 2.2137556 -4.0096483 4.5878386 1.0217708 4.270048 -3.4810877 4.79242 -1.0121765 7.0592833 2.8223338 2.5917618 -3.8370912 -3.2384906 -0.31859562 -4.17986 -7.918057 9.805403
1742 0.946385 4.948011 -6.437281 0.94445 1.4690502 7.9348245 5.909196 3.165382 -5.4270854 7.0396733 -5.8713512 1.0145417 0.57825345 -1.1120185 2.5055919 -6.459318 -3.061305 -5.2760067 1.9204768 6.084754
525 0.9943993 -5.7134943 -0.6870114 4.476112 -5.554017 -0.6631414 1.2379336 1.4542283 6.835913 -3.449817 -8.379553 1.2672907 -8.225834 -5.365071 -0.88723546 -3.7771852 6.365908 -5.5956416 3.752656 2.6686547
239 -7.6584435 -4.1686916 -5.970784 0.09347705 -3.4560852 -1.1759665 7.906852 1.4555892 1.7588407 -11.7660675 0.95475334 8.798511 -1.888395 -0.41559297 -6.0154314 -4.1949234 5.004405 -4.2806015 -3.0900013 1.690292
1927 0.22839026 -4.1851325 5.883949 -1.2435945 -7.9019575 -4.1749187 -1.2760078 -3.605245 -11.016607 -1.8186241 -5.473679 8.546687 3.634257 -8.116882 -6.6471696 0.83694685 -3.9375114 4.7516985 -2.7125328 -0.5507819
1015 -7.4682903 4.2224283 2.8188815 -0.37316558 -3.3189197 -2.1479084 3.2040775 -9.384324 5.1695848 -4.217274 7.2597237 2.8407803 -9.326063 -1.1116527 -0.9402175 3.1209838 5.9198627 5.656654 -9.66385 -7.9127374
833 8.719185 1.4463809 -0.6752145 -2.962922 2.0080988 2.7214265 2.8561475 -3.9968786 -4.573887 -8.816856 -3.33198 8.101441 5.5398912 -0.28722277 5.2300324 2.7719462 0.110350855 5.643279 6.563236 -0.8910114
2130 -3.3164034 8.270519 2.2912526 7.3949866 1.6310077 -4.092989 8.166236 -7.3153977 -3.945254 -2.8177495 -5.5041614 8.198541 7.802273 -0.047493022 6.848257 1.1576779 0.056432642 -3.0473387 -3.005966 -0.94264674
1050 -3.958661 1.1761991 10.837227 8.880004 5.6018896 2.580319 -12.025944 -8.570339 -2.1679406 4.4412766 5.877167 -1.3971257 4.124539 1.1752695 0.5236371 -1.4004242 0.5929392 -2.841553 0.30037785 -2.790979
1740 -1.7059863 0.81205374 -11.458352 -1.3278929 2.3276887 6.5433264 -0.8084363 4.311789 0.7772827 2.4895096 -1.2201004 10.82263 2.2796395 2.6344922 -0.33348837 0.09076402 2.7461536 2.5063205 -10.653533 2.8471305
1966 -6.136555 5.0772095 6.410914 11.154828 2.6790438 -1.5593249 -2.9311345 -5.91869 -5.451937 -0.46917316 6.407008 3.8750086 -4.4775753 -6.8866825 -2.5692945 -2.131624 -0.8259833 -3.5633695 2.520263 -4.5829997
2464 -0.73806465 -1.9594624 -2.7387412 3.5302472 4.989088 11.404178 -0.9836335 -7.4928036 1.712216 1.3495878 1.6368967 2.7340763 -0.47169337 -1.609379 -3.0981238 0.7448885 -6.6572037 0.5323886 0.68458444 -7.2633677
645 2.272645 -10.8789625 1.2509326 -7.601689 -0.7692812 4.3660994 -3.1712341 1.6784185 -8.427577 3.607728 -5.8779855 -2.5722039 4.3646994 4.070508 -0.15107872 -6.221038 -5.151645 -5.3660064 -3.240413 0.14419784
1119 1.292111 2.6797502 0.14019984 1.9777282 1.0547837 -3.0597785 4.283518 -8.461688 -2.0793226 -2.285428 3.0535188 2.6289637 2.6783924 2.273846 6.378396 -0.060977425 -7.818682 -4.1858277 -7.077261 1.1360192
577 4.291284 5.1530914 -1.3615668 2.9743912 -2.2838473 -5.1683364 3.933817 -1.8925126 7.7778287 -0.652728 -2.5284092 2.023731 -4.0244274 -5.4102097 7.958804 -0.4692843 -6.369932 -2.260828 -7.0589514 6.598449
2025 -0.31701997 -8.8079195 4.007301 3.277475 -13.667118 -4.9194636 -0.7995646 2.710363 5.7670355 -7.143623 -2.3169026 -0.1545981 5.463394 4.6127715 -1.5187346 -2.0771058 0.5428048 0.8884967 -9.055954 0.6961403
350 0.649234 4.158018 -4.045937 4.343043 -1.4137712 1.1018889 0.9994282 -1.256797 8.886841 -4.4610004 8.608235 0.69040716 5.5102386 4.757899 -5.3486443 -3.5836983 5.5927916 2.0520084 -0.29515195 1.0624958
73 3.1165507 -3.2959177 -2.1697953 0.1327461 3.7021937 8.378692 0.88175905 5.705084 -9.9207 4.575388 1.3868072 -1.3625323 4.483526 1.2562594 4.54392 4.105061 0.13948989 2.6002505 -4.153277 8.192057
94 -5.9052114 1.7429304 10.26806 8.199146 -4.9650745 -3.0965755 0.5226343 -4.7107563 1.4548548 -3.9711244 8.648623 1.8154567 -8.613937 -9.116949 -4.011545 0.9391533 -0.6152152 3.1744187 -3.9611561 3.013344
565 3.726247 -0.36309892 -11.310699 -4.145251 6.232323 8.002794 -3.4611742 7.7416434 0.877721 8.620759 -3.0133817 -0.2578436 2.6547246 -1.488126 0.09816664 3.3495793 -5.3250012 -3.804513 2.3999631 6.3415346
55 -0.3015526 -7.655114 4.6795244 -1.2616392 -6.55914 -7.124953 6.738688 -10.439626 -2.220947 -3.9910698 -2.3658078 0.4482018 -0.72986305 -2.959683 -8.09826 -1.1713626 2.2338796 -4.8941646 6.39349 -1.2983503
1505 1.8386289 1.1091466 -7.8133516 0.1468954 2.4007506 0.97275084 6.5059247 2.484666 7.092005 2.6672266 8.0395975 -1.8987141 -3.5525563 0.6494612 -4.4404783 0.39106116 8.244237 0.27361283 -11.464033 3.1699877
1655 -5.811305 -3.9502285 2.5087392 -1.0018522 -10.32812 -2.6638741 -1.6920998 -5.7011113 4.1810513 -5.9522886 -2.5758643 5.2087893 3.597761 -3.5729563 -1.8142904 -5.5997605 -5.3192077 8.055645 -0.8785532 3.732374
441 8.371068 -1.8154482 2.4755461 -5.0051403 -3.154176 -0.6421837 -5.5370064 8.716028 7.3934264 -0.14748101 1.480932 -11.357733 1.5519388 1.1704876 -6.7782164 0.54595673 6.3026953 -2.7833116 -7.093748 -0.26324522
734 -1.3633574 -2.3071463 -5.4538584 6.5305595 0.44531623 0.7476128 -6.3450785 -4.931874 3.7138164 -7.721614 -5.0615954 4.341594 -1.3039998 -5.9884787 2.8456242 1.520543 4.873255 -1.5322974 1.8781186 4.24942
218 1.9250458 8.435659 5.7105627 -1.4423891 -6.3902006 3.2491195 10.363898 -3.3235815 2.6930528 -4.1344385 4.4434566 2.089346 -4.385035 7.599148 7.5449543 -8.547832 -0.2734927 3.9474826 1.7161287 -0.30138916
154 3.7348852 -5.936489 -2.19541 -4.1780286 -4.8597126 5.939108 0.42844993 10.442384 -1.9384588 4.4132257 1.3378618 4.109554 -2.723699 2.695005 -2.3443527 -9.597357 -2.3296738 1.9351225 -2.1345477 3.33137
279 -8.87011 -6.0868516 -3.574907 -7.447508 -10.509418 -6.1197643 -4.340902 0.87731296 -0.06504819 0.6515033 -6.582075 2.5863695 0.8301307 0.35996792 -1.268676 6.6668115 -1.6087707 -0.6870933 4.55775 -1.6408523
519 1.0109735 1.4594033 -6.8271403 -4.2714205 -4.054399 -2.604885 -0.2101853 -0.15805312 7.466393 -5.9031267 7.427415 -3.3026779 0.61712277 7.9151692 7.0714445 2.8956685 -4.4894204 4.151821 -1.8150744 -3.8981335
454 4.6677604 -6.8364205 3.7832794 -8.880254 -0.49592948 0.2664938 -4.702222 0.1920329 3.3089151 -9.093336 2.9048343 -8.248713 -0.8939596 -0.09654281 -10.533288 1.3916444 7.867811 -2.4906993 -2.4182792 -4.9116044
1171 -0.33828053 -4.1760645 -1.0941584 -8.863218 0.38351718 0.46427646 -1.1759698 5.420687 -1.5830321 -7.551968 0.45118886 5.866539 -2.2524295 -4.4947953 4.88672 2.7274234 -10.149054 4.2577796 -0.55621254 4.7812715
2359 3.8122478 -3.6897075 -0.7580981 -2.5635605 2.1301773 5.5347676 -2.468992 8.055559 -6.228781 -4.122745 -2.5917828 1.8442897 3.430848 -4.7064915 6.2775574 0.98457247 -6.1559997 5.180702 -3.6578789 6.9572587
2681 3.3290699 -2.4222178 9.1099825 1.7556828 10.193438 -0.11891459 0.20523876 -4.6785235 2.5387692 -4.441936 -4.073033 2.5183275 6.240696 0.7458734 3.1290498 0.2189208 4.2091565 -11.549097 1.492534 4.4752545
657 -0.30527136 0.50181174 -8.08229 -1.3806692 -2.7636936 4.7015743 -4.6692677 5.9865065 -0.015456024 2.0537124 -2.3661938 6.1253395 2.5734968 -2.0461118 -7.9992504 0.5994327 -1.715268 -3.3617074 -6.171914 6.921337
2160 1.1631316 -1.1976255 4.96033 0.26168033 10.662218 2.809789 2.4411643 -1.4466822 -5.2238336 6.631353 -3.8659532 0.6339791 -0.04045454 -4.642435 2.9081655 12.467615 -2.3517022 -5.44942 3.348297 -6.1625323
364 1.8937664 -2.0083025 -1.7138274 -0.6144542 1.6553614 8.354626 4.1552567 3.850158 -3.0764177 5.872713 4.817857 8.414447 -6.415136 0.17006607 -3.5830646 -6.47431 -1.2909907 0.07924381 1.9965435 5.126771
748 -3.1047478 -14.720462 -7.553222 0.66314924 1.031961 1.4065646 -2.3679123 4.1714044 -5.5130043 4.5857716 1.4480445 -0.97391367 5.6041164 -2.171845 -8.277557 -8.148387 0.080994725 -1.0753127 -2.5489082 2.1965342
2238 4.068765 2.8073716 1.1638948 10.900407 0.17807293 -0.6322448 0.587559 -6.999919 0.97789466 5.726832 4.989293 7.9056973 -8.622625 -1.5343324 3.045946 0.42836863 -6.4287634 -1.7484539 -0.9586241 -5.891504
1952 -0.87164557 8.883946 3.903122 -1.1353687 -8.196811 -0.99437875 -4.462364 -5.606704 -3.6063266 -3.2984953 -7.6082635 1.4781655 1.490344 -4.3936977 1.5624789 -2.1881127 -2.7589371 2.6477778 -3.146381 -5.3295913
735 5.172511 1.6511816 8.506757 -2.229559 0.26304898 4.2108407 -4.890474 1.4589001 -3.6976593 4.42421 5.396082 -5.9741564 1.4081752 -3.3135252 -3.4206371 -5.4486895 -3.4732254 4.8140407 -6.387671 -2.0637705
1902 -4.1178536 0.40165895 1.8078122 -10.926697 5.95709 3.9612548 2.2425473 4.3419266 -2.1521363 6.479149 -3.1489992 -3.6224859 5.092186 4.745853 3.2406352 0.17145729 1.8373086 0.34097952 -8.308024 -6.90989
505 -5.6517644 5.811539 1.6093509 -3.4969623 5.621367 0.83943176 2.6510675 3.3009665 -1.1579679 -3.251308 9.494183 -0.5366422 11.30344 3.4736147 -3.488766 -3.5299923 3.6337302 6.3270063 -2.1928942 -4.165034
316 -1.8776331 0.6516898 2.1869593 -4.2016973 -1.268684 -4.5912766 1.3696196 -0.3928936 -1.0119071 -7.2260823 -6.1756496 -1.5098119 0.8870252 1.5124913 15.719111 2.9094665 -0.7020603 -0.2832926 1.4865546 1.0193133
487 -0.5330949 -0.6993651 -1.2050956 -0.062737554 -2.981037 -0.8500404 2.5664415 -1.7063941 2.6705244 0.653576 2.368014 -1.2028182 8.069405 10.361228 -3.341226 -1.376606 3.0166693 -3.3353808 -8.963007 -6.1037555
2451 -5.333118 1.6169087 -9.927053 3.141862 4.535539 5.034939 0.3381723 5.620591 1.9513931 5.49285 5.0333176 9.479965 1.8092576 2.1779044 0.33147654 -2.305642 5.477102 5.030752 -7.8578568 1.9384588
1954 4.90835 -2.2136426 5.355258 -7.466215 1.4398882 8.501876 -2.2272298 -0.88303745 1.047191 -1.181339 -1.1048918 -8.520418 -3.701498 -3.6624491 0.6000625 -7.1114445 -6.8154297 1.2958274 -0.8106803 -2.2083573
210 -4.3515816 -4.559628 12.335965 -0.084904924 -4.805341 -6.2628393 5.271633 -8.038755 -2.402301 -7.197681 3.035309 0.7666189 3.4319382 -2.5976663 -5.3845825 3.2980185 -5.6450353 0.8788732 5.3892026 -5.2794356
1154 -5.976418 4.988011 -6.278761 4.5775623 -1.539433 9.001073 -1.2036664 3.5866566 -5.385949 5.479524 -1.8289526 2.4378018 4.3064785 0.09617538 -1.8393537 -7.171691 -1.253676 -2.6134434 4.012929 6.2852526
65 -4.0759916 -4.219211 -0.44559157 0.12931764 -7.172099 -4.890116 3.3591354 -5.892807 -0.89082885 -8.089986 -1.2923487 6.623772 -3.4680572 -1.5165154 -4.9913163 -1.2725285 5.213975 -5.6584597 -2.3793926 4.763015
756 1.8112458 -8.47778 3.7174408 -3.3067749 -3.4514396 -4.868011 5.0561395 -2.695592 5.2324467 6.9845495 -1.1958487 -0.539043 -3.7491071 -3.2053213 -1.3896772 -7.698386 3.9284058 2.9213223 -2.395803 4.948888
1776 -5.1844635 1.2558806 -8.679929 -3.039812 -0.31210658 3.1693816 2.016982 5.966679 1.4451265 -5.118988 6.3788285 -4.144819 3.9400613 9.240684 3.3291714 2.7915757 6.650165 -2.4532125 2.0530148 5.6484632
1869 3.940044 3.652772 10.089355 -0.9726958 -8.53159 -4.4536295 -0.04492265 5.895976 9.52376 -4.7754354 -0.5365316 3.6650138 -3.1997263 0.8787863 0.91318953 8.001789 -1.6984234 3.3909192 5.4846425 -3.7494254
1351 -4.247841 -4.800488 0.12658066 -2.2464116 -2.893609 2.501635 -4.260934 -6.8511147 -2.2031765 -4.690517 -7.2226853 -7.724239 4.817903 -11.467989 -4.5157676 1.4702287 -1.2538604 3.9235091 -4.9083 3.675324
48 0.033198103 7.2942615 4.7928333 1.0467993 -6.065294 -2.6952052 -5.057509 -6.561324 -2.3030014 -0.61933684 -4.640495 -1.4505781 2.235902 1.0050479 9.24424 4.26325 -3.5162513 5.124668 -1.5620507 -11.197753
1317 8.993003 -1.1884353 -7.270741 0.6405941 0.9461396 3.1269324 -1.7419982 1.785145 -4.0860753 2.7246714 1.4734963 6.998395 -4.0547056 -1.8717033 1.7667207 -6.3604574 1.9812255 1.8950588 4.9516544 5.518187
1558 6.745486 -3.216566 4.9436607 0.91739196 4.4427404 -0.95087546 6.1030526 -1.67647 0.7249198 -1.3616742 10.321363 -2.4273353 1.8631749 4.7203064 8.0906925 -3.2145429 -1.9965912 6.455207 4.083801 -2.307775
180 -0.060220245 8.119352 5.274733 -3.144666 -0.43309927 -4.889491 8.600504 0.04073974 2.4510705 -0.34957448 -3.4488373 7.1541643 -1.708267 1.9315386 9.806893 -3.2950094 -4.5179825 0.6062968 0.5308079 -6.7250037
2122 4.193065 6.7185454 -1.9043514 6.0638423 0.54818386 -1.2986166 4.6437697 -9.202539 2.255273 9.875712 4.30399 -0.046527516 -2.232129 -0.3006471 2.4591997 -0.9424328 1.9533389 4.8941374 -2.1332798 -5.723733
59 4.448112 7.548335 -7.532837 -0.4994369 2.664606 6.0500846 0.048525978 2.1191216 -5.0136642 0.2556357 -5.9381495 6.636364 1.2313522 2.5626838 5.3253775 -9.002409 2.8232803 -3.584128 -5.508747 1.683457
2450 2.064532 -5.8547716 -2.731353 -2.344694 -0.42171156 4.774453 4.326476 5.775514 -2.5933135 1.0338352 -3.7734873 -4.072912 1.802936 1.4000764 -3.4399016 -3.5846508 7.1027055 -3.2187216 7.7226715 0.1689802
702 -7.0904098 -7.3398952 -6.0004144 2.2111244 -1.5471747 -4.8135586 2.7661476 -3.3862739 1.7330803 7.689173 -1.6360348 -9.043558 6.668106 -3.5476098 -3.9263706 4.254124 2.6686373 -1.8538417 -3.299504 3.6508691
1702 -2.5069594 3.7886374 4.130548 7.9504514 1.1391742 -0.34862196 -0.8809123 -3.9466105 -1.7229656 3.048101 4.585026 5.82404 -5.4194202 -1.4900612 -0.12805355 -2.4747763 -5.510301 -5.3711324 4.0538692 -5.4372234
1682 7.5397706 3.5652347 3.9304483 1.4270453 -0.5613979 -0.035112154 2.5294967 2.9828186 1.3807371 -11.710226 3.1808126 1.5136775 -2.74041 -4.738269 -3.7428036 -4.1671286 5.556015 2.6037495 -4.811701 -2.5754457
1889 -3.030668 3.8558466 4.0172515 5.224645 5.164857 -4.681477 6.4089403 -7.3611903 -2.0557208 -4.0586305 -4.486321 1.0627201 2.0905938 -6.9365664 7.389145 0.5159812 2.0213299 1.1471982 -4.060641 -3.1149917
1955 2.450422 -0.05786242 4.6257567 -4.125556 4.548708 5.100192 0.20572202 0.12818024 5.055309 2.6445594 -2.4085422 -10.370086 -1.686908 -5.2312827 2.1597207 -7.855268 -4.380683 0.8695131 -0.5299527 -6.356342
482 2.7026067 10.855703 0.5647982 1.7790952 -4.0225434 4.093006 8.726314 2.83643 3.5108314 2.915942 -4.0546193 4.511493 -0.913184 3.6177225 8.519625 -3.9814057 -3.4489985 2.685674 -1.59812 -0.91828275
1583 1.5933747 -12.507535 1.8253988 5.450484 -6.751546 -1.1326976 -0.8412494 1.4691153 5.1573668 -4.9960003 3.069361 -2.5405118 -0.023204269 0.6731828 -0.99890184 5.7300444 -2.7016053 1.0439314 -3.7580354 2.7745926
2383 -1.8177823 4.035251 -1.7157129 1.005746 -4.560634 2.165342 -3.5305264 -8.767501 6.1533084 6.9439993 1.6286311 0.8245628 -7.756768 1.9012628 -2.458164 -7.280123 4.9129057 -0.90449643 -5.2284083 -3.472451
1912 4.2604084 -0.51036185 -0.5791274 -1.1913792 -4.361956 -12.074955 8.42397 8.615022 -1.197968 -2.4148448 1.5470593 -3.210003 2.0062766 -2.8749087 -3.958012 -1.2364947 -0.9752724 -5.021319 0.94128084 -3.8072205
1602 -2.305968 -4.967095 -3.7911372 6.244484 -3.202531 -2.4746225 -5.00335 -1.3135281 0.42273077 -4.8489966 -6.8366947 4.1519237 -4.72776 -10.535495 0.41755882 -7.51912 5.2967525 2.2464998 -3.2822144 -0.9312641
456 -1.9540257 -2.6906953 2.6912127 4.38939 -0.88893485 3.0579853 2.1516643 -2.5344813 5.017876 -4.3031254 -7.201931 -4.2893295 -2.7270873 -4.389104 1.8276532 -5.6339273 9.596363 -2.5250344 -4.8032365 4.089032
2335 0.39562538 -3.0007973 1.9534147 5.3245873 -4.828078 -2.9216876 2.4896193 -6.5108895 0.4780215 4.5107765 -2.561286 4.6793675 -13.134176 -3.4288116 6.2213726 2.0796673 1.3119649 3.0303512 -2.2574198 -8.527739
2291 5.353258 5.0654125 -2.4157434 3.6663516 -3.6414282 3.6588738 7.4939837 3.2330248 -1.510095 -9.371982 0.24621746 2.0169413 -7.581641 -7.0403147 0.76331705 -6.721837 3.6409752 2.3212833 -0.7776839 2.2684097
711 -8.850804 -7.7143254 -1.3153576 -4.7263794 1.57472 2.0134716 -0.92437893 0.5977886 4.4932084 -2.2184868 -2.8270698 -5.6536775 1.2421126 -6.8941464 -8.084113 -0.274973 10.884819 3.584315 4.889608 -0.7115653
1903 -1.5788703 2.4333923 -0.014366637 -12.750752 6.308878 3.8661606 7.0407286 -0.7194064 -1.4217993 8.001869 1.5690808 -7.300299 -1.2872761 3.2756464 4.0683904 1.3447198 -1.5254753 -0.094155915 -1.4500793 -7.292993
490 -10.956451 -4.3951983 -5.119979 -3.7790747 -4.9660645 -1.1218146 2.6949914 2.5498185 4.9143686 3.2665992 -2.5166843 -3.750819 0.35951555 -5.117243 -5.547537 -4.19112 -8.469263 -0.05632638 -0.34027705 -3.4526277
2570 0.77936476 -1.8484232 3.4601684 -3.8009412 4.865577 -6.556984 1.8113843 3.6410723 0.69694066 2.2999458 2.9535635 0.6750449 -5.2827263 -2.679226 7.599437 7.989612 7.860471 -0.346034 2.9245965 5.5159907
89 3.489414 -0.54563135 0.0008983549 5.027071 4.694816 7.2540994 -4.0544543 -3.3136225 5.574848 3.3227992 -1.7911187 5.6474156 0.098660424 -0.42919397 -4.0573635 -4.381611 -3.224144 -3.5624385 2.1128066 -8.35896
374 2.7045846 -1.0841956 -4.561471 -0.42214465 4.8222117 -0.71371454 3.8494754 1.9763483 -7.497194 0.027553564 8.519618 1.7364205 -5.043068 -4.831105 -1.9851891 10.102966 2.0400267 -0.7536576 0.38307968 -3.146655
2080 0.040852312 3.18563 -2.5064924 -2.4244416 -2.3266008 -5.1261773 5.6894007 -3.13956 3.6790698 -0.5942424 1.7056727 -4.047358 7.8764434 7.7597284 -4.286575 -1.714035 3.4187233 -6.300089 -1.4138662 -6.6247873
231 -1.3040934 -4.0109153 3.732903 -9.508046 -0.69207036 -9.596321 -1.8079361 -2.1266806 7.0535636 -3.1309347 4.214325 -8.76067 3.2772179 3.9510193 5.709163 6.6059093 -2.6686795 0.55755496 -2.233782 -1.723038
2199 -1.8692437 -8.40751 -1.4111791 1.39021 2.216912 3.86336 0.93417907 -1.1751237 2.94212 -2.6456938 -2.3523564 -2.5795987 -4.6973023 -2.4452243 6.201086 -5.824202 8.072634 2.3019607 -7.5080104 4.3124847
1367 -4.1611066 6.9503818 -3.84232 -1.0376371 -0.93466187 -5.3152504 2.7305984 1.731857 11.088718 1.8790008 0.8654862 1.6107427 3.5534961 4.439466 -4.016177 1.5682104 5.6982303 -4.8094296 -2.6017585 -2.5314531
236 -2.6146462 1.7744737 -7.4391522 -6.342762 2.1084547 3.9874775 3.6982012 2.5603743 6.118099 -8.2684765 2.8867044 -1.368319 3.9750896 5.317149 0.93674123 3.046565 2.713493 -0.26192212 -2.4804244 0.7409787
2083 -4.529906 1.0402665 -4.2363186 1.7209489 4.526956 6.3869066 3.8460488 7.9225826 -2.2374942 4.3384657 4.889028 1.6494387 6.507983 0.9332495 -3.840076 -5.862815 3.418166 5.2542768 -0.42490533 -1.6033329
736 -0.07062334 -1.9421891 -3.354165 4.3122606 1.7001374 2.0570219 -6.002648 -4.9656687 4.766185 -7.4445624 -3.876747 2.3028114 -0.9241057 -5.3817525 2.9755402 0.43609843 4.137962 -0.92861575 2.8531215 5.488349
1842 -0.77334267 -2.4833362 -2.3971066 -6.219181 -9.265476 -4.2015696 -2.2375333 -2.5065708 3.89066 -3.160453 1.1843339 0.32738712 2.6959214 -3.880725 -8.723832 -1.0766923 -3.5317209 3.4884458 0.684051 5.3717413
281 -8.154837 -3.3826811 2.4125965 2.6801507 -0.65212566 3.9770274 4.958652 0.57055795 -4.2274666 1.6818476 3.812319 -2.2184477 0.1532143 1.373579 10.64477 -4.1209574 -4.549033 5.192516 4.412883 4.9390035
1022 2.7427235 3.2180161 4.99611 -9.071415 5.346056 0.15924807 -3.2794855 -0.65725386 5.4457693 9.32218 -7.3110814 -7.461398 2.1019437 -1.850717 1.6568011 -4.5879064 -2.5037973 -4.081189 2.1718884 -5.266582
1269 -0.3208836 -0.86387056 6.297444 -1.98115 -5.9835277 -1.6314332 -2.096422 1.6167549 3.6245706 1.0019003 -2.3629642 -2.5672789 2.67225 -3.008764 -5.2211585 -6.5733585 -4.5261106 -0.67025393 13.278395 -0.5219307
2309 -0.60351956 -1.0620449 15.953319 -1.412608 -5.8318768 -7.5134563 3.144001 -1.4540672 4.38325 -6.0590425 -1.528151 2.540242 3.2857764 -4.2510133 -5.327867 5.7500863 -1.1135205 2.5897894 5.5363655 -1.4350014
444 -3.5397406 -0.4951677 -2.390367 1.5558742 2.5972025 11.114991 0.86036605 -8.982854 0.65948015 1.9726008 -2.103195 1.0254176 1.2470498 -0.5839695 -0.46785972 2.329318 -4.2118287 0.49056202 0.40180662 -3.7517352
867 0.3073646 3.838185 -2.2310543 0.9718715 -3.87113 4.724057 -4.8143167 4.486245 -2.0583413 4.719575 -2.1683333 4.8864336 2.084858 -0.85742885 -4.182976 0.68124574 -2.3657722 -2.8060634 -6.3107443 5.536149
1907 -0.6476665 -9.133253 5.051566 3.5005224 -5.5645227 -6.983093 4.8934016 -6.8042736 -5.189901 -3.8509007 6.006253 6.7287354 2.4484475 0.5329008 0.89238447 2.024322 -7.0106063 4.949193 1.2834264 -2.3269866
1464 -6.5401993 -5.7286243 -1.1678449 -0.32591233 -1.5168797 1.5292175 -3.341567 -3.3030746 0.6438588 -7.116996 -1.3516937 -7.9938507 4.055853 -2.6892896 -1.3379136 1.2973075 -4.2519474 -5.3221645 2.2419128 3.6379998
1616 -7.1047745 -1.3098528 -1.8458005 -1.7795343 -0.48751527 2.5151925 -6.3203945 -3.140164 1.3766754 -1.533835 -0.33419666 -4.4330506 4.191009 -2.7845361 -14.171939 5.3749566 6.814978 -4.082544 0.6433149 -4.565245
33 -0.5898282 7.7455163 2.264043 -0.53542393 -1.6263171 0.12655932 5.9402256 -11.539817 1.3140134 6.116735 4.571845 3.7409503 -3.5041044 2.4159262 4.119688 -5.8955765 1.0318263 6.406385 -1.9480721 -2.6105876
2147 1.0845455 -1.0623872 -6.144583 1.3929337 4.5325313 -0.47062624 5.132375 1.8702163 -3.3995788 1.3341022 8.958557 -1.3482744 -5.6962047 -7.1175146 0.20767562 7.5565505 -2.9392939 1.3503348 1.3359567 -0.55133724
2146 2.33871 -1.2338603 -3.9197865 -0.3483356 4.5746136 -0.48864874 3.53731 1.3978915 -6.062919 0.12910089 7.3324575 1.2745376 -4.4981575 -4.2442403 -1.5020671 8.783685 2.5943832 -0.30447325 0.775461 -2.6057067
2054 -4.701512 -1.8493727 1.0010647 2.580032 -2.6161637 0.52745336 -2.5674655 -2.0101523 2.716306 -0.8498831 -8.189263 -1.0513405 -7.5746346 -7.1892643 0.64349014 -6.0645304 5.608871 -4.172517 -1.8783542 0.5696074
609 3.153998 -0.014831833 -7.91969 4.17871 1.7420859 1.0544255 -0.2931803 2.5005722 -4.2906466 7.3285227 -5.4451494 4.6058254 2.7285879 3.8259618 4.2179484 -3.5501451 4.3761716 -5.231948 -1.0944192 -0.4117996
74 -7.79975 -5.6589174 4.221526 3.1253273 -1.1450676 -3.782248 0.16928416 -2.6529415 -1.1827692 -2.13019 -1.7268156 3.6083689 -0.38741335 -5.7546005 -4.5353713 -1.1300287 7.023282 -1.2017641 -11.04533 4.1203175
1739 6.817374 -4.3969903 -3.474556 5.565753 2.8042912 -0.0073713576 -0.5742554 4.6772842 -4.688119 3.1032796 1.622719 6.7535586 -1.2292093 -0.43908 5.8824263 -4.452023 0.315277 -0.30686238 3.6942747 6.56054
1360 -1.4150537 4.1676674 4.3466578 -8.673075 1.2641816 1.9234397 0.8057547 -1.9932714 -1.3403667 9.017221 -4.185772 -5.1628323 5.503938 5.723537 1.4412535 1.1913594 -0.74045146 -3.6829457 -1.5864462 -5.3395824
1681 3.3355176 5.294421 2.3755016 1.7654444 3.5490494 -0.44777623 1.570988 3.3502076 5.0656343 -8.850986 6.626756 2.1136222 -0.9875233 -0.1662378 -1.4801941 -5.031256 5.797289 1.2228094 -5.793796 -6.6280932
1826 0.54040694 -2.3911588 4.0713162 -8.326346 1.934396 1.4776875 1.6552645 4.306916 -6.0203266 2.0479093 -3.317486 -0.25765797 0.6148369 2.5287068 2.3330388 -2.504521 0.5765518 -4.36295 -8.853576 -0.68096
1158 -0.21885817 6.987772 -6.556716 -3.0311725 -6.617196 -1.5266776 -3.416923 -3.4183328 6.542287 -0.4824591 1.2856082 0.9086675 -1.511759 5.38267 -3.6416337 -3.9733086 9.910475 -1.1319875 -3.5786455 -1.9037489
1065 1.9184897 6.210313 3.3037865 7.372177 4.115078 1.7324147 7.78711 1.9233209 4.011626 -0.03575085 8.136143 -2.567543 -1.541073 -0.7445583 -2.23411 5.028387 5.0466037 -3.5208628 0.6446135 2.8368094
1519 -7.088589 -5.2884226 -2.1052868 -0.2317937 -2.787287 -2.4084585 -0.82134205 -11.102281 5.878273 0.8263328 1.747903 -0.6895698 -11.199776 -1.3586824 4.1053734 5.764467 1.4954029 0.5508294 -0.7667664 -5.6950617
472 -2.1027768 2.706554 3.2515018 -6.753132 1.9048966 0.9886205 -0.47978392 4.0922894 -6.660047 5.797304 0.42611778 -3.0425298 1.4587197 1.59013 3.2113857 -2.5601647 -2.6960232 0.39272627 -10.549951 -8.208857
1296 2.3987815 -0.25776634 -3.5915635 -4.9007945 -0.55670404 -9.112603 2.5707805 4.0503316 -2.730723 1.9546824 0.46106964 -5.967661 3.7445624 -2.3316731 -3.6048367 -2.1427832 6.8509846 -2.6163874 -2.5254202 -0.7498443
817 3.3269413 -6.0182753 -6.4341435 6.920738 -2.6164758 9.695362 -2.1658 2.8205743 -0.092376746 1.9936818 1.9845223 0.13526888 0.6998174 4.2321615 1.1103572 0.07954382 0.20868851 0.32155564 2.5975642 3.7101882
695 6.9875455 2.296777 -1.3343726 2.3329644 0.9418049 -3.9653034 3.3202608 2.286911 4.103878 -8.260858 4.5626955 2.2320168 -0.87759364 -2.8616822 -1.5549946 -2.3836749 0.94447875 2.1734896 -5.362643 -7.8342233
1185 -0.3900139 -4.2390842 3.898538 3.6355524 -1.8762766 -6.059185 -0.042867396 5.0651903 4.877434 4.8496556 2.6381686 -2.5504017 4.772227 4.4202704 8.977718 -5.5378723 -2.7111175 0.2392075 -1.5651135 3.486266
2247 -7.249997 3.7773619 3.5603106 2.1241841 1.835001 3.378858 1.584531 -2.17225 -0.36360168 3.3092747 3.5727756 0.75056905 -2.4244916 -1.8009603 9.413103 2.7363508 -8.561542 3.231633 7.078057 3.7409859
1824 1.0759997 -2.3420577 1.1507342 -9.9283 1.737869 -2.0985096 -3.827812 2.725943 -5.9168873 5.7605267 -2.4362102 -2.525833 1.6353056 2.182924 2.4680068 -6.050738 -3.1902723 -5.192375 -7.046484 -1.7241188
2539 7.672808 -0.32356453 5.8089123 -6.1655464 5.3462048 2.093967 -5.3132286 -12.00552 -1.6987747 2.114218 3.0205069 -0.13346243 1.3323855 -1.9682511 -0.007142272 -4.395587 -0.43234986 1.1985232 6.127101 5.160885
1527 2.3312366 -7.350968 -2.8013968 -1.5961618 -3.2647214 6.0658264 7.2897277 1.3254454 -4.8538427 -0.9750692 -5.281173 -8.221288 -2.8652198 -2.1760962 -4.6225777 -2.6232033 1.4172418 -5.8758416 9.018431 -1.7649614
2241 3.04528 -3.6292844 7.0297785 -6.7037463 4.920192 2.0667636 -0.54483145 -6.469059 -3.9528773 0.033765666 1.7530801 -0.4685162 -1.699602 -3.178846 5.9552016 -6.7705355 -2.4381394 5.881672 5.476006 2.1747196
2176 -7.2304053 1.1631371 5.9906216 -1.9761964 -1.8652815 8.609904 -0.9881457 1.738553 -2.826824 -2.4127588 -0.298109 0.98958796 -2.3792894 1.2720323 3.298883 -3.8266377 0.6951367 2.2740896 2.9112012 0.26066166
739 4.529812 0.9612692 7.032956 -1.7021351 -0.48573008 3.0776818 -4.012487 1.6395988 -3.3674905 3.5679579 4.321306 -5.164013 1.4231842 -2.1264298 -2.8655334 -4.4110713 -3.17779 3.5285888 -5.740819 -2.7607756
39 0.029115764 3.4463 8.257834 11.080275 1.5003794 2.6715412 -4.051144 -3.9762895 -1.5117835 -5.9691033 6.6661944 6.4798646 -3.574824 1.2420725 6.155568 -0.8969902 -4.399999 -3.1063967 -4.3525915 1.4698094
2056 0.6549018 0.043953512 -7.092357 9.789986 -5.1253366 -0.39568198 -4.7189183 -2.5388722 0.5475544 -6.25097 -4.689652 4.382169 -4.9792695 -5.306646 -1.4340568 1.0329235 6.3326707 -5.80208 -0.9110019 0.8698522
1958 4.5154014 -0.09950986 7.1876407 -2.7108629 -0.5960299 5.7322865 -3.2221212 1.0572934 -2.9583862 2.3073437 5.7274575 -4.8714256 -2.032137 -3.1023185 -4.79107 -4.1256585 -5.8060007 4.123464 -2.5357697 -3.4998555
603 2.5107472 1.9485509 -1.1622186 -3.2927947 -7.1386576 -1.4247364 2.2027876 7.9610014 2.1391106 -7.819445 0.022785103 -1.7193054 1.9688033 4.8217397 5.400061 5.6613827 3.8100998 4.4877667 -5.365202 -2.054151
610 -5.496959 1.3357288 -1.9282898 -5.421062 5.7557 0.18466264 4.187398 2.7341034 7.490074 -1.4061195 8.52011 -4.481261 -0.6169189 2.5610163 -2.1228955 0.2891584 -4.226995 -4.7813163 -2.4770517 -5.573725
1300 1.3417643 8.146145 -1.8444098 -3.1351883 3.5478723 0.01595658 -2.6832516 -4.3469315 3.9258494 0.58915746 1.826248 -2.459147 -2.832366 -3.1748314 -0.18843761 2.9347363 -0.650871 -3.59354 5.635833 -1.0165887
1475 0.07545747 5.8397503 7.181087 0.9364601 0.91573846 6.3187 -1.3939813 -4.6041756 0.35551584 -0.86427534 -1.7913108 -2.6246622 1.8396043 -3.1141655 -3.3383298 -3.2438548 6.7410846 -3.2298894 -1.0248291 9.449904
1256 -4.751696 1.8233677 3.0386386 -1.2752492 0.92926455 9.774336 -3.9033778 3.135305 -4.093223 -1.7871749 -1.0848266 1.2223314 -0.8426574 1.434696 2.4558578 -3.595703 0.80985886 -0.803646 2.9058316 0.5494307
442 1.7065091 6.921963 0.64151376 2.5207438 -0.2523036 1.5880718 2.6243284 -12.450475 0.103175186 6.5789394 3.3002322 4.1276493 -5.5321994 -1.9547815 1.3455216 -2.8976905 0.33324325 4.4518867 -5.0030456 -2.865419
897 0.5194151 -6.658034 0.6588339 2.0349488 -8.86385 -5.964752 6.2731853 -10.044534 -1.5768336 -1.5319569 -1.2106153 6.7741795 1.8007401 -3.3528464 -4.681277 -2.565475 -2.4784374 4.783089 -1.7303442 0.5434995
2097 5.376425 2.1223686 -0.05089436 -0.8260075 -4.765992 -0.33410427 0.73349977 7.175772 -2.4792998 -0.104513146 -2.6649325 0.22200504 -0.023694837 4.1153197 3.1973803 7.5849586 9.149803 0.93666875 -4.3725038 -7.2923675
868 -8.28243 -3.311833 0.5212707 -2.4710858 -6.0787635 -4.476196 -7.3904066 3.3778212 4.337663 -0.36037755 -1.2153625 2.5302048 0.3218251 -4.2711635 -4.252802 6.1147413 -9.170168 0.13635744 -1.9319915 -5.2899
1443 3.933591 0.8515467 0.3412918 7.9647646 2.7404313 2.828963 -4.143875 0.1129298 3.5072458 5.30853 1.1135684 5.3391023 -0.44444984 -0.8302319 -6.011146 1.3684417 -1.6792918 -5.5425305 0.64652383 -6.780005
243 -0.28608355 -1.7187363 5.0808992 4.99358 1.6872585 6.0285244 -7.2255535 -4.21671 0.44086453 -1.9963322 6.7422366 7.5130177 -3.8909028 2.3666937 4.2708435 -1.2373443 3.0345535 5.0841002 -0.40332428 0.43521228
2071 5.454438 -9.340993 -5.42099 -1.0403583 -3.01212 -3.1191366 -3.2875278 -2.066154 -5.954176 -2.5938246 -5.5964093 -3.7864752 7.8550067 -2.9720771 -5.7337837 2.3304996 -2.895889 -3.7207394 -5.6934147 -2.918176
2168 -1.8856741 2.213639 -6.6760917 -1.4752665 1.7606505 7.0202084 1.5604583 8.708657 -6.309797 2.887064 0.9564317 0.9241622 5.595905 -2.5592923 -1.187604 -0.21894208 -0.77365845 6.8588886 3.6326988 -0.26014182
2117 -4.3392015 1.1719422 3.641104 0.563263 -2.9457757 -3.2187674 -5.8169646 -4.5811086 6.446593 -2.8818383 0.8165642 7.138824 -0.29635668 1.4133499 4.227411 2.7136111 -7.129661 -2.7814498 3.739044 4.8353395
2075 1.043461 5.274391 3.2061262 -4.1329927 -1.3481004 -3.3047218 7.9300814 -0.28929913 3.812743 -3.9337006 1.4273409 2.5728545 -0.9299654 3.5812993 2.8757155 -7.028827 -0.54320705 -1.6005361 -0.1659046 -4.018475
2126 0.7609654 4.0247555 -2.0417392 0.39870867 1.7167163 -2.69696 2.9110463 -7.2660027 -0.8297466 -0.491352 0.44263244 2.6153386 2.1342301 -1.3151234 2.5568006 0.31078407 -6.0871577 -5.2105355 -5.422346 2.546935
403 0.23421308 0.60479426 -3.103787 3.573053 3.945403 3.758581 1.4100537 1.1421121 -7.263491 9.031873 -2.5956128 -3.1078043 -4.34659 -3.5468562 6.1974807 -3.6453235 -1.791973 -6.475167 0.0030183725 4.378964
458 1.317802 -1.3981044 1.7222402 -8.586572 1.2329003 -1.6361986 -9.302754 5.220852 5.0008698 7.764922 -3.2365048 -5.8961906 0.26974458 -2.327073 -0.008372098 -2.811007 1.3742223 -1.2911735 -4.560757 1.1875356
1721 -0.6744392 1.6902671 -6.3368516 -3.9895327 2.845263 7.0644116 -9.644092 4.2281027 -3.002644 -0.92214096 -2.3691862 4.057023 0.40650442 1.3894039 5.368173 -6.870207 -1.6568034 1.336445 2.9789588 -0.13959764
745 3.7281456 -6.5743604 2.4573598 5.065021 -3.4051106 -2.916786 2.9633663 0.9074949 3.7027166 -4.124683 1.5475914 -0.6716389 0.84038454 1.8091369 4.1864457 3.7741969 -3.1505494 -0.20439132 -0.6365182 -0.41616923
553 2.9454153 -8.066456 3.5070775 4.352898 -3.197907 -2.4894125 1.4919661 0.831709 4.6037326 -3.933654 0.8938428 -0.7382137 0.4905766 1.0451492 2.7341323 5.4142427 -2.352835 -0.50384843 -0.057392295 -0.8602127
1538 -4.5997977 0.46401814 -0.64699143 -12.888378 -4.773085 2.5598452 -1.2405258 -0.2532435 1.5670527 -0.9973662 0.3708384 0.4548578 2.6451297 -1.259783 -11.23995 -0.80383116 -0.7869556 3.864481 -1.0139618 0.03575821
133 -6.2084637 2.4813905 -5.060255 1.2322813 1.1931037 -1.5667689 -2.534793 0.2020763 4.5178 -5.286393 4.0647163 -5.204355 4.239986 2.754013 5.114525 0.33350754 5.7185273 1.299116 -9.62201 0.19382149
371 7.7308493 -0.5892384 1.1116309 -9.555127 2.2461278 1.7945279 0.7500793 1.6172328 -5.0011897 0.7992862 1.8414302 -1.2313144 -7.7785435 -1.1153381 1.0002573 -1.6943399 1.0956837 -0.1364467 -6.035606 -4.4358387
831 1.5866495 -5.4172945 -7.0735197 -1.8346518 6.504895 6.9902077 -0.30731094 5.950617 1.8733114 -0.88357025 3.2082684 -0.10910471 -0.8927312 7.529717 4.172992 -7.2335634 0.82913095 -7.7513824 -2.6678228 2.6412497
1795 -1.0273978 0.22585976 -3.8978307 2.5301101 7.2511015 10.029329 1.1848187 -7.059209 -0.09301841 -4.4202957 4.6276255 1.5283211 0.39912662 -4.2583814 -2.8128595 -0.28386992 -3.5497365 1.9348757 2.3457026 -2.6372662
1370 -4.424384 -9.644209 1.0518643 -0.8132894 -0.45522436 2.6796563 -1.5096211 0.43402338 -2.9326599 2.9187584 0.13744251 -9.495715 -3.8501809 -5.213853 -5.8302736 3.4059556 1.5495543 -2.7038207 -0.18324657 -3.182612
1463 -11.942598 -0.8015246 -1.6657039 -0.12362211 -2.0598772 1.5723374 -0.22318344 -1.2838206 3.6041892 -1.1550109 -5.5368285 -2.646275 -2.83144 -7.4537554 -4.2344217 -5.0417895 -1.6754987 -4.636356 -0.30001613 -1.9519197
2269 3.859916 1.4768081 -3.217023 -11.160023 3.261369 1.8277476 4.417378 0.018784633 -1.4022944 5.3164177 1.0775533 -3.3754735 -2.8915703 2.3253174 2.2270577 -0.6349728 0.6095008 1.5567425 -1.6300229 -6.1011477
368 0.52837014 1.2552502 10.206638 9.523085 0.9636243 -0.55987626 0.42473385 -0.6782975 -4.7418365 1.1442105 -0.75370824 4.7126265 5.152221 3.9834538 3.4506335 0.9767603 2.8867955 -4.737726 -1.264956 -1.9191298
957 -4.8971667 2.1631536 -4.6016326 5.2702665 1.463607 6.8182187 3.1048708 5.8296323 -3.7390985 6.257141 2.1651797 4.303186 4.7289915 0.72088426 -1.5732421 -7.7950406 0.8358107 2.7737296 -0.28967577 1.6832951
580 3.4785104 4.790832 -3.6918988 1.9695605 2.2951505 5.3953137 2.3478692 3.5732121 -7.1225257 0.55329424 -2.8684065 1.6957372 1.0351287 -1.2570444 2.9016392 -6.961771 -1.9644434 -5.504409 2.9018104 6.0043063
1273 0.99801385 7.3397164 -1.1788096 -3.8861187 0.48888937 -3.8149178 2.1915543 -7.1398854 -2.1509366 -3.6935985 -0.021534624 3.4889324 4.2865906 -1.6630173 2.2265496 -0.20777997 -6.820282 -0.063916184 -3.6941082 0.56247973
2446 2.161467 -0.0023190083 -9.551577 2.9911857 1.1240373 4.12468 3.9055676 2.5011837 -5.7539005 6.0048537 -5.7030625 -0.27171084 3.0797515 3.1222284 3.706259 0.40575382 2.7769563 -6.9009356 -3.1928627 1.9183117
102 -4.5502143 2.8367603 0.64448655 -3.0563314 0.4358748 -1.561975 -3.464666 4.266522 5.4373956 -7.576402 5.0873404 -0.80956364 6.304207 5.087302 1.1027305 -5.7224603 -1.2573444 0.8818737 1.3302678 -5.6272025
186 0.71760577 8.59143 3.535646 3.112726 0.9883581 2.12735 3.479408 -2.0665004 -1.5431323 1.6204392 1.8424422 1.2680855 6.2954335 -4.8335495 1.0494548 2.6640308 -12.646617 3.3341546 -0.41889322 -0.9606019
1634 -0.51540405 2.7145221 10.827945 11.895242 2.3400342 2.0086825 -5.172899 -2.2266166 -1.2529341 -0.12868507 1.8944491 2.3605292 2.4027674 2.6117315 5.020471 1.6125947 -1.0626721 -6.0086527 -3.468966 0.86932945
836 -4.244499 -4.104638 -8.497072 -8.463305 -7.7500625 2.674051 -0.746532 -0.02209022 5.1075454 -6.162461 4.943663 -1.6282736 -0.6115204 6.204145 -0.45352128 2.800119 -1.8741037 3.2260044 1.2144423 3.285846
1336 4.968245 5.57264 0.8096974 -1.4705405 -0.532534 -0.6178457 2.99606 -4.943331 3.6974883 -6.2766128 -0.54067487 6.542799 0.47694895 -3.456203 -3.6753473 -2.914733 1.5220071 6.803156 -8.11108 -9.211361
2216 -0.17602696 -3.8709192 -4.317632 -6.120381 0.5653607 5.6263466 -4.145913 0.13645595 -1.6354393 5.09503 2.9374173 -2.3808641 -1.7125835 3.6996443 2.8791842 1.4466125 -1.4847474 -2.0350056 -0.8363247 8.900785
36 2.6253202 1.9700713 -5.352999 0.5454327 -1.0388678 0.86068624 3.584556 1.2955728 6.8335066 -1.4790605 7.868268 -5.587328 0.5647673 1.2313886 -5.1392536 -3.7215817 2.6686835 -1.184122 -7.8815684 2.4969249
779 -5.7421875 -7.8832564 -0.84496063 1.4910048 -0.9175119 -1.071871 0.017120961 -1.9113158 -3.4951634 3.1637897 -0.6622159 -8.917864 1.9473321 -3.6396332 -2.7471156 5.150475 0.23201367 -2.5505445 -2.232371 -1.6069903
1957 1.7457516 -4.211859 3.5177648 -8.143346 3.6867747 3.5414536 -2.0512152 -1.591841 -3.171305 -3.9460661 1.880053 -0.3800372 -5.4870663 -5.5106354 3.127745 -6.4497523 -6.4168305 2.705873 2.2394311 2.4732482
2518 -1.7285657 4.0434303 3.4564686 5.810801 -2.8998444 1.1690246 -1.9173659 -7.206854 -4.529843 -0.114016265 -2.6262102 2.7570329 1.1100202 4.9982805 4.2458277 2.2190344 3.5286117 -3.9384456 1.9437102 -6.2575684
492 -0.91748244 1.9202515 3.352456 8.016101 -1.4008833 3.072278 -1.4829162 -4.91208 -5.21631 -2.6331794 2.6357927 2.075053 0.8912665 2.9937403 1.5295874 5.3113627 7.6124854 -1.5900092 5.2338324 -0.80932933
606 -2.3657334 4.063426 2.0671341 4.58944 -8.364184 2.753017 5.5278993 0.6993033 1.4266598 4.155146 -7.508568 -1.4557768 3.1820774 1.6862648 5.584305 0.3619687 -2.0414498 3.9455206 -0.010044968 -5.5963035
1428 -4.3353524 -1.4018222 1.2494823 -2.151831 2.035363 1.942417 -1.0888609 -4.7909904 4.632313 10.718697 0.4808565 3.023224 -8.548574 1.5351663 2.4963381 -0.19640926 4.87745 0.89748245 1.0661657 -4.910952
1998 4.6319757 -1.5025716 -5.3056655 -0.0383151 -3.1918828 -6.6830254 2.3465588 1.9243821 7.660788 -6.0615897 7.6093245 -0.7612469 -0.9524533 1.6341308 0.56742066 -1.2047553 -4.159938 3.184872 -7.0286994 -8.479987
544 -6.6323657 -3.5421064 2.1949713 2.7690804 1.0744429 -1.8801557 1.6462009 -1.1880292 4.3615985 -5.941749 1.2047361 -4.303413 -0.25952262 -0.69169 2.2006545 -4.629031 9.170177 -1.7250203 -12.021609 2.6093957
1501 0.40897042 -4.2654014 6.5172114 1.919821 -0.6088589 0.89611083 -3.7594233 2.7039983 -2.7029839 -1.1023595 0.44719446 -4.7155623 8.350585 -4.5004554 -5.662259 6.7675824 -4.5965185 -0.18026139 9.722321 1.8809665
2181 2.213149 -3.7651665 -1.7637964 3.0965877 0.15395467 2.2830982 -4.5733705 -4.8215265 6.6922503 -3.7156665 -8.152019 0.9676667 -2.383106 -4.7606792 3.0488598 -2.7493575 4.729749 -1.4279149 2.6351645 3.37251
1743 1.7862507 -2.5106418 -4.0553946 -1.9299583 1.3178835 5.0189066 1.3644645 6.968018 -1.8059613 2.3225603 -1.3300735 -1.1367369 1.8243451 2.5178032 -0.94289935 -4.1081777 6.404798 -0.394387 4.9111953 0.52463186
1135 -0.727496 0.8498418 4.3438554 6.554082 -0.949035 1.8001132 -1.7026066 -2.7551508 -1.9737308 -1.509129 -2.268909 1.547079 1.6629413 3.1985087 2.9142559 4.0109377 5.8776975 -4.0392375 2.7891464 -1.9767069
548 0.750184 -0.4437864 5.539047 -2.7707453 3.5269043 -2.5190792 -0.55578226 5.16852 -4.484382 -2.8622813 1.9074819 -3.833887 5.018616 -0.7311572 4.419882 0.43599167 0.14937337 4.6946716 6.8358355 -8.677237
2133 -9.566595 0.3282678 -0.65360415 1.3698908 -0.071076766 3.2241714 -0.06767814 -1.7613584 4.192916 -1.6165745 -7.730802 -0.1342745 -5.1268687 -7.3275704 -1.6534932 -4.3188124 1.2036451 -5.5874643 -0.9792665 -1.8966786
175 -6.0216346 -5.0150642 0.85994744 -7.118895 1.3391852 -5.5427876 -3.8584175 -6.844044 -0.741952 -0.31139287 1.3250843 -7.361718 5.8956 -2.3756104 0.7778034 1.3309371 0.3936736 2.4935129 1.8335439 0.7941452
1147 -0.6319634 1.3651693 0.32812935 -2.7580009 -0.80560225 -4.9335976 -7.0110035 1.2200068 -1.7095122 0.36857262 6.6292043 1.7829449 -1.0104622 -1.6411335 1.1014435 2.167781 1.6443911 4.1295176 6.54649 0.9716001
962 2.0515563 10.983075 5.9027796 -2.3076086 -2.0315163 -3.4504812 5.647819 3.4719949 0.35868934 -0.27109638 -0.938115 2.0336492 3.4825664 -2.6001875 4.336278 1.2303019 0.015223691 6.312111 -2.3474154 1.8783404
567 1.2877648 -0.34396726 -3.4580903 -1.003538 2.6331234 2.6825047 -2.1161282 3.1982746 3.762431 -1.0366025 -2.457266 0.007829526 10.774304 1.5237069 6.853358 -3.2433033 -3.9617906 3.8167324 -2.716811 8.388801
2376 -6.8282046 1.7555313 4.1653543 -1.2683519 0.17193393 1.5888083 2.2747722 -6.372284 2.503557 10.288738 1.3423014 3.0636694 -3.6115835 2.430285 -2.1484256 1.3806258 7.45952 2.3013256 -2.378643 -4.607082
201 4.9340663 2.5821116 -2.4242616 2.869698 2.326441 -7.620593 -0.6999339 2.1684206 0.85314053 0.61784005 2.4532595 -1.6203067 2.633194 1.7257953 10.198773 3.737168 -4.4250593 -1.7705812 5.7256966 -2.756208
194 -2.59693 -3.057371 6.9803247 4.6542273 2.9032645 4.217749 -9.451575 -4.938479 1.6973969 2.9668684 4.95441 1.0814545 1.6672342 1.6914173 0.8400655 -2.241918 2.8412986 3.390877 1.0807912 -0.36021134
1417 -1.1541691 2.422663 0.5652364 0.22345117 -0.89126575 0.9370409 -0.2523046 -3.0230706 1.0363606 -2.6356602 3.0416696 10.251221 -6.9712467 -1.9978408 -5.389131 -0.92586756 -0.28057855 2.1463022 3.3822553 -12.490089
2472 -0.6619474 1.805204 4.760799 5.3714113 1.2998011 6.4716687 0.27136046 -1.5763642 1.7515682 -2.0554016 -6.4634132 -4.5180364 0.5272649 -5.895025 -0.18674023 -6.391178 8.905292 -1.7471843 -1.4728011 4.915194
1526 -5.916423 -4.7837386 2.257168 -1.9940643 -4.251235 -3.7636755 -0.89453167 2.8009362 5.971099 5.5100355 0.099704504 -1.042534 0.27903005 -3.852331 -5.866271 0.73883116 -7.9279737 0.47614333 -4.383597 -4.379339
24 5.275689 3.233164 -0.16871098 -0.8151221 0.20216319 -6.9766994 -4.3865023 1.1753813 2.0413876 -2.6333268 1.2566329 -2.2418046 -1.1665536 0.35488385 7.1964245 -0.3400461 0.0033652515 -2.614091 5.099094 -0.8854112
1282 -2.2110734 -0.9306689 -5.3191833 -2.1895604 3.2008538 5.5201907 1.0845314 9.350242 1.0485162 -0.47010517 4.3182135 -5.728908 -0.8569373 5.759101 3.768321 -1.988843 5.8270564 -4.647257 2.8094316 3.1273785
1090 -0.6218539 0.8639736 -0.5325883 -1.5399531 1.5059218 -1.8757573 -5.359195 0.38517815 -2.032285 4.009643 5.775736 2.309452 -0.47157845 -4.7141595 -3.2575839 2.9687843 0.35556895 3.2690613 6.4551344 1.7712996
1908 0.9021358 -5.5418434 -1.1331943 -2.6766813 -3.543709 -2.0174794 3.6961832 1.0564076 -0.7012415 -4.643128 -2.2580824 3.3395207 -4.8648586 -4.7246275 -4.672024 0.6428825 -4.128688 -0.45200703 5.1187277 -10.493206
1307 2.7959611 0.6045216 0.3344614 -2.0223749 -3.786202 0.9057035 -4.3235645 7.493159 -4.8469205 6.6821246 3.277575 2.136736 -3.244751 5.5259924 -3.5081878 -6.7755666 7.186165 -3.9355602 -1.1138324 -2.151783
145 3.00641 -2.99322 3.4729807 -1.6926242 9.398014 -0.55822337 -5.6873956 -4.8764844 -2.0426729 2.9790142 0.80474216 0.7139934 -3.2003555 -6.371435 1.0239317 6.2314243 -3.8439925 -5.619588 0.5158555 -0.17558499
121 -0.494944 6.789061 -4.509704 -3.3139052 -4.375956 -5.2864575 -2.5681891 1.9369429 1.4775466 1.9027438 2.7058456 -0.38960648 -0.50043017 2.5771804 -4.6019406 -4.124379 10.958278 -2.9591353 -3.7075443 -1.740351
2476 2.4472494 2.2923222 -7.646694 -4.053322 3.7707727 6.5617266 -6.8233314 -1.4840293 -1.929361 0.67407453 -0.93451726 0.3237007 1.6610913 2.0794659 4.94561 -10.890325 2.3397899 1.671334 -2.8964891 1.8402112
1115 -1.3782016 -4.9258585 5.5504966 -1.215913 -3.8975246 -2.0191047 -6.2468514 7.613529 1.8338431 -2.6576507 -1.0802139 2.639165 -6.1666102 -5.7234473 -2.2750244 1.9149443 -4.664876 1.9169501 6.749252 -10.20211
2534 -2.0608695 6.665048 2.5738397 -2.2223141 -5.9002953 -1.4626238 -1.661965 4.475727 -2.091026 6.744897 2.4389155 -5.6546774 -5.5834966 0.66578835 7.6834755 4.3346143 -2.2313454 0.6521333 3.87329 0.99560785
2349 0.124325804 -3.566632 5.036522 3.3492858 -2.9824095 -3.5697906 -0.38364148 1.3423251 3.5210524 4.1560736 0.49074066 -2.9794981 3.170923 2.0467513 4.64976 -4.987289 1.2513818 0.45778722 -2.8519404 5.273933
160 2.826263 -5.7846475 3.9781737 4.865524 -3.2868145 -2.695536 4.038001 2.27504 4.9617715 -3.538887 1.3119472 -0.94929475 0.19518295 3.0466504 3.717928 2.880451 -3.0569096 -1.8545126 0.8492368 -2.8707318
1529 -0.43491367 -4.844161 1.177976 -3.96891 -1.5532993 -2.4890761 -1.2481512 -0.08991311 0.85604423 -2.4909432 0.16378687 4.8244977 -4.8384514 -3.2672894 -4.7897468 -0.2525867 -1.2981886 1.1111156 7.2517304 -10.715873
854 3.1646144 -0.26170203 6.291421 -1.7390634 -3.765035 2.9832776 -1.9480726 8.686512 5.5115294 1.7130322 2.8269389 -1.2959611 -2.9965677 -0.417916 -3.2894478 0.55796105 -0.14732362 5.086594 1.8107179 -4.3498783
2018 7.637341 -7.842339 1.1279117 -2.3241954 -3.2568371 0.0032526457 6.882022 2.6247594 2.1240141 1.9275287 -0.07767256 0.45430794 -0.6918057 -4.628569 -12.151463 0.6778008 -2.3511767 0.24507965 2.980508 -1.8891958
1577 5.418219 4.4368916 0.3050872 -0.7958198 0.51375914 0.58961624 4.327719 -2.9306223 3.46256 4.930682 5.423365 -3.6601033 -2.1404998 4.9950953 4.0698547 8.508525 -1.6906273 -1.7005643 8.926833 -0.07455351
1920 -2.8033645 -2.3832943 7.4849744 -0.16479805 -1.6148905 -2.4873126 -5.464273 -0.60402495 -4.1608014 -8.7628765 -0.4917536 -5.8568745 0.8823578 -6.1311393 0.82821 4.288834 4.783917 1.6831217 -2.1079335 0.876807
139 -2.8443315 1.5966101 -5.1510773 3.941593 0.767012 -1.7196563 3.0808856 -0.6412572 0.39151198 -6.780081 6.955117 1.7092657 1.9977403 3.0281494 -3.6637785 1.8360913 7.423856 -1.901552 -2.5395305 -4.865206
1849 -2.3763044 -2.2760744 0.088275455 -0.28553998 -2.0269403 0.708816 -5.391715 -1.4725639 -1.0367477 -4.6787105 1.8754892 -3.3749757 5.583061 -2.3097928 -11.120018 6.5169563 -0.34127823 -4.4017663 5.09285 -0.044266485
2157 0.48019135 -0.6764676 3.850439 0.9867383 6.7382464 3.3986087 3.3739898 0.030678986 -4.3842716 5.6263723 -4.6009216 -0.013254485 -0.30357036 -3.0873883 3.0626638 8.820094 0.86909086 -3.200529 3.983689 -5.69683
2365 0.66548824 -5.190922 -3.134664 3.0998428 2.274887 0.037864182 3.3299148 5.9847717 -4.869739 4.197975 2.947224 6.0164433 -4.4587913 2.045776 6.423416 -1.4216938 -2.386493 -3.323695 5.256483 1.8572841
1080 -3.728416 -3.8990984 1.5028337 -0.5148486 -11.086285 -5.351185 2.0040817 -1.4349487 -5.3883467 -3.228832 -6.718798 3.6540203 3.7009249 -0.77030206 -2.0239916 -4.467605 2.7788384 -0.83029896 2.6404114 2.2222247
1343 -2.0551229 -2.8688326 -4.521868 -9.07665 -8.551806 2.2840354 -3.3702261 -1.2379545 2.3120325 -2.7183545 -1.527212 -2.0061328 -2.5182843 3.186116 -1.044918 3.5990818 3.1143703 3.2600322 2.8069944 -1.9047275
1035 1.3069744 -2.1291738 -3.8444223 0.90202194 4.9775605 9.316658 2.8450446 3.2177901 -3.4258046 0.90426487 0.9083245 2.7911348 1.2383319 -1.4056948 1.438983 1.2657936 1.9268624 4.6026053 -12.000194 3.3769588
1284 0.6194879 -7.8836164 -1.2807528 -0.20121399 0.7394978 4.1981487 -1.1116626 4.9367027 -5.0359235 0.63948125 -2.9112527 2.6229386 1.6111695 1.9068736 -1.1482911 -1.3821596 4.695361 -4.0341754 5.6106157 4.551217
904 2.6084316 4.8965387 4.5439496 -8.071539 0.8020742 1.5449382 1.5330259 -0.5248335 0.47720158 5.463461 -3.3102968 -5.627831 6.7368116 4.545449 -1.9146717 -2.9801033 -0.3743505 -4.036621 1.2909003 -2.95281
889 0.71194065 3.6570842 -2.827397 5.033598 0.9232315 6.7414217 -1.817727 8.190285 -0.23095556 -4.2135243 0.8716702 -5.9298725 3.1933851 -0.08810333 5.846854 1.3740234 -0.69437546 -1.3415247 -6.336367 4.21676
1610 1.8576372 0.7088527 -9.403258 -4.164444 7.3244 7.6854286 -3.7024221 8.773039 2.0647492 0.52135634 -1.8772162 3.360319 1.5232178 -0.37186795 -1.0163933 2.602938 -0.52717334 -3.601422 1.320557 1.4090031
155 3.0681438 -4.589817 -6.9286866 4.5041647 -1.9619057 8.144299 -2.0744188 1.8792906 -0.60144246 3.2391512 1.2220565 0.9868648 0.9567171 4.834475 2.0215373 -0.98785317 -0.66686946 -0.116048485 3.4163785 3.4483516
99 3.78838 4.1289034 0.95070195 9.070004 -0.714435 -3.8800986 -5.6356707 1.0299706 -1.0449525 2.584748 1.5150504 -4.937571 6.0312395 -4.9991283 0.23468868 -5.541573 -1.6183157 -2.832114 -1.4451563 0.5248927
1070 -2.1095486 -3.102025 -6.4026265 -11.132004 4.60327 0.15280107 1.1069824 5.692178 -4.7437234 2.657272 -1.9136925 1.9340489 5.695258 1.9809657 -1.0943269 -4.759999 3.9136631 -0.7621696 -3.7467031 4.372054
1772 -2.4573755 0.78105074 -1.3798342 0.77922124 0.89505005 -0.23670518 -1.339901 -2.2984867 3.033607 -2.8779569 6.6513147 0.22279197 3.6863935 8.23304 -1.0275242 1.5636915 2.4996712 -3.6377006 -6.251739 -4.553419
1926 -3.737495 -2.6308558 5.2173448 -0.3759411 -2.6446912 -2.883157 -6.108807 0.26606566 -3.5854166 -9.052261 -3.7978191 -2.3987615 -0.5532086 -6.774177 -0.93568236 -0.30939028 7.0580626 0.11372541 -5.026337 1.0793679
1325 -5.166411 2.4389608 -0.4093326 4.1414175 1.2260443 0.19638778 4.868396 1.2245415 5.2907066 1.6476251 4.29267 -0.13775368 -0.6482504 -2.9568138 7.6725664 2.8371296 -5.4763665 4.5474277 5.4419827 6.1243296
1067 2.4543386 7.7002754 -7.348448 5.1430755 -0.07175941 4.249827 0.23559836 6.814228 -0.147991 2.0751452 -2.5046322 1.8891145 2.4230523 5.3048544 9.30733 -3.374248 -0.75498307 -3.4634154 -5.165222 1.2236763
2351 4.1124125 -0.37514883 1.005974 2.6817572 1.624698 -3.7466176 -0.42145902 -1.3200955 5.3315253 0.8348592 -0.9946193 1.0255857 -2.8966649 -3.7602315 4.6750793 -2.1509871 -4.7523284 -3.831776 -5.4769907 1.0640856
2194 -0.94796526 -10.602369 1.0312873 7.2063794 -9.849797 -7.4663935 -6.695897 -3.4483826 3.2014692 3.077761 2.0297353 -1.3863771 -1.7335359 -0.71359617 -2.0079045 0.6728954 -0.73953825 -1.5776354 1.7699212 1.0237768
638 -6.291688 1.4571538 3.195584 3.4849205 -2.2360437 2.763723 0.7707582 -3.7035944 1.8710717 6.0310383 4.994773 -1.7977278 -2.6511407 5.5007257 -3.8722467 -5.367378 4.9329796 -1.7557154 -4.5535445 -8.391623
2385 -0.26146194 -0.46571487 0.16481635 2.5176446 -9.658552 -8.24354 4.9081573 5.661358 -0.17184867 -0.36526874 3.0424721 -1.5959194 -0.18996312 -1.7235937 -6.930068 3.1036084 -2.2827563 -2.9604697 -2.680063 -4.8101172
1798 0.6254195 -0.40820765 -3.9135847 -3.6711395 -0.26684228 -0.52509886 2.3451762 -0.94375306 7.417562 0.85982984 0.50697964 3.4696193 5.9935384 8.250788 -2.94611 -1.4130611 5.744141 -1.0415466 -5.0764427 -1.8023328
2224 1.6353778 4.4744186 -2.9729593 1.4712842 6.6773405 -3.7513945 -4.3485494 1.278069 -0.9139658 5.0756474 3.9096937 0.9465815 0.25713032 -9.328771 3.5187116 -2.8741915 -2.8143468 4.7030883 -2.7037523 -2.3054318
1395 1.1669904 0.47232306 2.310646 0.87506956 1.0342102 1.3144011 -2.2317095 3.226118 1.4912885 -9.572145 -3.700379 -1.2410891 -1.7784857 -10.944334 -6.1366267 -2.7708132 6.231135 0.80355513 -2.1711724 -3.0157878
1666 -0.43071675 2.7694933 3.3250172 3.44235 -5.4737086 -1.7530595 2.8629513 -2.5310085 -0.635712 4.2792354 -3.8828523 0.572585 5.752652 2.2170577 6.0785327 0.11314495 -4.8383274 6.363823 -0.16370672 -8.730264
2124 -1.5363936 4.092605 -1.4426448 0.7419976 1.2369716 -2.4812984 2.6646297 -7.0011477 -3.301594 -0.5978182 -0.21135136 2.680968 3.4649525 -0.06424448 3.0147064 1.8690684 -5.1440587 -5.6561413 -4.1689615 1.8424696
269 -12.2076645 -0.42310014 3.3078132 4.3179345 3.1276615 0.17299658 5.116233 -4.3765492 1.4538755 4.3824463 3.9606657 1.9518178 0.52313006 1.1948713 7.3218045 -0.10275825 -0.20608431 -0.13142675 3.6760302 6.101056
1469 -0.19902611 -4.5840907 5.104621 1.7734039 -3.6242058 -3.6770952 0.6550175 0.79337496 3.8231313 4.873834 0.20814039 -1.6207494 2.3480737 1.63538 2.87882 -5.549501 1.0481919 1.1460083 -2.9364722 5.237205
440 6.8013124 -0.07426565 -0.88242126 -5.0191693 -1.7986101 -3.8436825 -0.42747384 3.0772538 -0.566192 0.6636654 -3.1460416 -9.015338 2.2489028 -5.1313286 -5.358597 0.059184786 5.73328 -2.7311172 -5.62767 1.3511485
1705 -2.955752 4.865277 0.66487753 1.1128924 -0.94981813 1.3664929 6.160592 1.8813744 8.291785 0.11839158 1.4181032 2.3179035 5.567939 4.686398 -8.305316 1.7111746 2.3863153 -3.8057761 -6.307973 -4.5986447
2387 -1.3428715 -0.41715175 2.7571952 2.4493878 -0.38019457 -0.024138315 -0.19794011 -0.9089349 -0.21898024 9.546806 4.879026 -1.900964 -7.1268163 3.5969453 -0.72754276 -6.5866027 5.9115334 -3.4852474 0.8089815 -6.7187433
1848 -4.2401805 -9.327218 -1.4907109 -3.8397179 -2.1093524 -5.1708755 3.526076 -0.26459253 -0.3288659 -6.718396 -1.8635525 0.9933585 -2.1588368 -6.92721 -6.58496 3.485305 -1.4718024 -6.040864 -5.598028 3.927646
1203 -4.0816784 -1.2729703 0.9747485 -0.9841023 -6.2730536 -9.01044 2.148092 -3.4784486 6.0892925 -1.8040255 0.30408454 5.9219117 5.2326975 -5.5526457 -7.614107 3.414311 -1.3722578 5.9918437 -1.1965202 1.487493
650 0.06350682 -0.30842477 -0.47955295 2.6105077 3.7549658 9.746475 7.771719 4.505285 -2.304254 6.1679616 2.422356 3.232349 1.6580265 -2.5892823 -3.4865954 -6.638534 0.21021897 6.0239305 -1.964341 2.2114823
119 10.176577 1.6223176 6.5530357 -6.3929543 -1.2348295 4.7217712 -2.741183 1.5676285 2.898389 1.439955 -4.426311 -5.907923 1.1197292 2.1822605 -1.231053 -2.6642535 -0.67518556 -4.686538 -1.144513 0.6102558
591 2.2474751 2.6111145 5.6695027 6.471203 0.2254437 5.333969 1.2944252 -2.793589 0.44637474 2.81796 -4.428541 -5.224599 2.126916 -5.0639076 -0.8191671 -5.6240077 8.568992 -0.16322143 0.022705644 6.4599214
69 -0.5201735 -2.8235917 3.147454 -2.069761 -2.6435738 -1.3050754 -6.036629 -0.33199647 -1.9789741 -10.5467415 -2.206963 -5.361694 0.86555594 -8.711798 -2.190459 1.984676 1.2554888 1.203309 -3.1786308 3.7400603
737 -2.8525808 -4.3451676 0.6317141 0.8552545 -7.600286 -1.094557 1.7903701 -1.0432203 4.58136 -1.1703393 -5.5462527 -0.6299069 2.350799 -3.9108162 -4.2044444 -4.0718637 -6.063673 0.40668145 11.82302 -1.3409135
979 -1.9694484 -3.4932191 -0.04574864 -3.3568325 1.067825 3.7503018 -1.7675582 -4.3598094 -3.68607 -3.2225916 -0.10265638 1.8127196 -2.775658 -4.0409503 4.680116 -11.924521 -2.6348877 4.797129 2.3740199 4.0521913
1761 -4.0225387 1.3821477 -1.2015358 -0.25493503 1.2981273 11.188262 -6.286732 4.539725 -5.8095727 -1.7787241 -1.1814424 3.1022353 0.9065494 3.386691 2.1891987 -5.6765356 0.23455025 -1.6380274 3.5445468 1.7475047
426 -3.9511318 1.2365483 -0.9028881 -1.5099305 0.15750632 0.72480035 -0.6915784 -3.9149249 5.96718 -1.5341953 3.2148755 -0.0679006 2.5279799 7.3191924 0.8711094 -0.45071867 3.5726597 -0.30218625 -8.796269 -5.670082
885 0.121971965 -8.406619 1.2088863 -3.7470124 -2.8562186 -6.4056063 2.1729903 -3.9823916 7.3470235 4.8398914 1.7500802 0.6266245 -4.791269 -0.8830304 -3.1627614 -5.5903873 0.83598167 0.7848749 0.60483015 -1.879126
51 -1.9486027 -1.2112657 -1.2958663 -4.883103 0.19033551 3.8897839 -3.924547 -1.4961706 -1.0518322 6.530798 4.5318975 -3.7102113 -3.3193908 1.8448982 2.348597 0.54954123 0.49539575 -1.755945 -0.782914 9.495647
1782 0.9395019 -2.3637934 -2.630367 0.31781426 -1.3399363 -2.451485 0.29929474 -3.621473 6.965896 -1.9394495 4.4486523 0.8794814 4.7410736 6.883394 -3.161981 -2.904368 2.4522736 -0.3749826 -4.7715764 -4.7179785
760 -0.8308739 -1.1063037 -1.4811563 0.6039043 0.6846132 3.836316 -3.066466 2.5370018 -1.5307349 -1.3729751 -5.183989 -0.10245897 11.525672 3.1655579 9.634823 0.8428792 -4.1351013 1.5440141 -1.7684157 7.591844
44 1.2750642 1.6427982 -1.6252953 6.950261 -4.795043 3.5939622 -0.029189803 -0.5126331 -6.0588484 4.983697 12.386933 -5.273261 -1.6747559 -1.3490887 -3.241467 0.44836682 -3.3141475 1.0179259 2.8393524 3.856146
2178 2.024804 -5.456377 -2.710001 -1.960371 -6.3053107 -4.0898647 2.3189914 -0.59119534 3.6309009 1.8151512 -1.1427816 -0.6817372 -2.005498 -4.7412214 -6.3338304 -4.5319595 -4.7231374 -0.28845346 6.8404975 -0.44569674
2270 6.3594766 0.6702815 -2.6901515 -9.312595 2.9284928 0.3317963 1.6600602 1.66265 -2.1006734 4.235464 1.508332 0.39862898 -3.6537414 0.86623514 2.1484065 -0.9023233 1.3050654 2.3409045 -4.75344 -5.4271564
651 -0.24632487 -11.447097 2.4603095 -3.9083014 0.18793665 -9.313061 -0.1459046 -8.124337 1.634759 1.4005014 2.919605 0.7266221 -2.0498202 -1.647007 -5.8593664 -0.72319525 1.5377387 -2.0848696 3.6548672 -5.706615
1884 2.3740747 0.5363036 6.7378893 -4.1418247 -4.985695 4.181253 -0.56646997 3.7782743 2.997411 4.45432 5.9779096 -2.7844427 -2.2859447 -0.7079283 -8.383052 -0.53164643 -4.6776433 5.862157 2.6410427 -5.3878393
2240 3.0867708 -0.46153727 1.0299641 7.2678323 2.9337416 4.8381777 -1.0177526 -3.1935213 3.629167 3.722725 2.3086267 4.954662 -4.0136614 -0.9065103 -1.9404747 1.3129811 -3.6699638 -2.3612099 -1.0515956 -4.7714434
392 4.763005 1.218445 -2.1621532 -10.247271 1.0700634 -0.35912544 0.63277745 0.15178725 -5.3164973 4.6181912 1.6620182 -3.9098487 -4.574309 -0.07858256 2.1016557 -2.4508724 -1.2907878 -0.1439614 -4.4234376 -5.685582
1599 4.447708 -1.8177966 -5.4707623 -0.67770565 -2.6892705 4.088158 -2.0454552 2.224589 -2.136271 4.766109 -3.6646552 -0.80177456 9.978054 4.4446316 0.75829273 -0.4325481 -0.8568741 0.4427158 -2.1078584 8.780192
1290 2.633476 -2.296112 -1.7170113 0.19322759 1.4521911 6.226992 3.0398574 2.2250693 5.987398 5.165646 5.3625507 -5.177023 -8.166078 -4.648123 1.7707592 1.8108258 -1.236722 4.9789615 7.413684 1.3497221
1839 -5.8566766 -2.275465 0.76947343 -0.44360816 -1.9911685 -0.71160525 -3.0320807 -5.0434437 3.263089 -5.514458 1.618146 5.519179 -1.6788359 -7.0277057 -0.7032372 -10.085325 -1.7164696 6.7465343 -0.8687758 5.336508
2173 4.516028 2.605708 3.2819486 -7.0130725 3.993441 1.8499566 8.049813 -5.950292 5.7700157 -0.11927679 0.55200636 -6.558536 0.15891439 -5.589963 -1.0928948 2.3364458 -3.438989 -1.0915762 0.54804504 5.048376
2562 -0.60433257 -0.34321597 7.572867 -0.073510975 4.9559703 4.2460375 -5.3594627 -0.9577377 -0.5438788 8.380518 -7.608565 6.0202417 3.8263338 -2.858796 1.6925606 -0.7677131 4.5634055 3.1299336 2.0412328 -1.0746028
954 -6.597964 4.308292 5.5122313 -0.4878674 6.066253 0.12491528 3.7846088 2.4185228 0.645485 6.76622 0.55795777 -4.3933544 1.4474906 -8.328602 1.900074 -4.905177 -0.615396 1.0460808 -5.957985 3.9288228
2058 4.244292 -2.146268 0.8704737 6.577165 4.5226603 -0.32865784 -7.0148926 0.8793093 -5.2032704 2.9862401 4.2843013 2.759308 2.7504056 -2.6299608 -0.1603704 3.807662 4.7799587 3.2306068 -3.9831283 -5.3885083
640 -0.927239 -0.7032868 -2.7696486 -0.1363517 -0.536334 -2.4513369 -7.402297 0.40368846 -1.8640869 -0.16024733 7.1661243 1.5555859 -0.55398035 -5.4212375 -3.3226774 3.4029253 0.5690758 3.2898076 7.0730963 3.280605
258 3.0309727 1.6704301 -0.022930596 5.2181225 2.4235775 1.1659437 -3.5862575 -0.80988437 2.8042014 3.7535496 -0.067842 4.52707 0.785664 -0.21136716 -4.3826756 -2.675252 -1.2645432 -4.305347 3.017906 -7.47682
2564 -2.1804054 -2.2699795 6.9685845 4.758577 3.46214 2.7463253 -8.226289 -4.9143567 1.6165497 4.184783 3.450933 -0.9740657 3.2920167 1.0687975 -0.13397895 -2.2681205 2.0149298 0.3421547 1.1923066 -0.87487006
1745 -1.6338409 -3.4717684 -3.7992744 0.28030044 3.5078409 7.0961747 6.5924354 1.0512719 -7.230981 3.7448602 -0.23787911 0.92707765 5.3110557 2.155227 3.112068 -0.5712625 1.0619485 2.0077562 -4.1445446 5.8496103
1378 4.1280656 -2.1389525 0.9323565 6.778661 4.5636997 -0.22357383 -6.9310374 0.90927094 -5.333976 3.0944142 4.3039865 2.8611097 2.691366 -2.6895845 -0.011890958 3.761699 4.8467803 3.2462287 -4.080321 -5.2500544
1002 3.2596908 8.923591 2.2601213 -0.45961344 -2.010898 -0.25827792 -1.2968973 -5.860655 0.10009025 -3.9843159 -5.0686593 3.271218 3.465083 -2.8939729 -0.4708813 -3.9875524 -1.7880491 1.700613 0.15067607 -6.0095367
1470 -2.0876694 -5.551328 -3.5489643 -9.837439 4.3073187 -3.172142 -5.221032 5.163023 -2.8570983 6.851694 -3.2393851 -1.6791592 3.2531931 -1.5171044 0.07155958 -5.4822254 1.4103688 -1.844956 -4.0428967 1.3142112
623 -2.539753 -0.45640346 -0.90672666 1.4556487 2.2524104 9.825007 0.67331266 -6.8661237 1.7645642 1.1829386 -2.1254218 1.3262062 1.2529457 -0.1962135 -0.6649075 1.022701 -4.005255 0.16568805 0.36883864 -3.4836333
1095 -0.16416286 1.9570733 -1.9188511 3.8068266 -1.8770323 -3.326873 6.3775535 3.1150649 7.548619 -1.4451984 3.2096882 0.5155631 -2.0347986 -2.7950366 9.307802 3.3116314 -6.037598 5.2908654 1.1999121 5.4478087
401 5.872439 8.80754 6.8257656 2.5375328 3.2077816 0.3173167 7.356214 3.1191447 -2.3638701 -0.4164994 5.7332864 -0.5410868 -0.56990427 -0.5161758 0.32145575 2.8775742 2.72186 -1.7962911 4.9227767 1.9432414
515 -2.700079 -1.2459016 -2.090439 1.1693012 2.15979 9.226435 -0.31914976 -7.51098 -0.6279479 2.3200498 -1.3613439 0.14656083 0.41102123 -1.2421243 0.10864107 2.2244358 -4.4160075 0.94726354 -0.5250793 -4.0880623
1901 7.015294 -3.9213088 5.6394773 -7.767508 -2.4092443 7.693261 -3.7597792 -0.9057439 -1.1149642 0.5939656 -5.358283 -4.352545 -0.71898407 2.1814272 1.4278115 -3.8675814 -4.319487 -1.3689153 -3.2779696 0.18001126
473 -1.2855749 -3.4313374 5.9488173 3.7496288 1.8683984 5.5863585 -8.845214 -4.400957 2.0354154 1.1812707 5.6087723 3.3784642 -0.50414544 2.3470736 2.4740613 -2.0413218 3.3343492 5.7945724 0.43270382 -0.13938475
1735 -0.343374 -0.22657943 -5.4972453 -1.4934642 0.80213505 4.5858283 1.6356565 7.8281097 -1.5036387 0.060522202 1.5028336 -3.8318172 0.9549788 4.9289627 2.4918141 -1.2658604 7.0034375 -2.0329866 4.4023285 2.6637013
389 2.9279158 -1.175803 -0.64770234 -1.6868974 -0.23153979 4.5836096 0.8786739 9.468462 1.5319338 2.529838 0.3556044 -5.6817656 1.2510954 1.9073442 -2.4780571 -3.2432363 5.5477414 -0.079083286 3.144327 -1.6533902
1874 0.9345403 8.480599 0.83501333 -7.3286357 -0.546515 -5.758246 -4.644114 0.19025926 -1.6768167 -3.284418 1.5722321 2.5070899 -0.08897726 -1.4334925 5.528864 2.8762038 -4.1997457 0.6488418 -1.9108912 1.5781413
1778 -1.8421061 5.3325195 -2.459458 3.078463 1.9039427 -3.4669943 1.3298795 0.16926177 8.269209 0.02115967 8.434446 0.1708712 1.3116839 3.7489684 -2.93714 -2.306336 5.66348 -4.1830697 -0.73435754 2.5495827
2268 2.058468 2.290649 1.6456189 0.9809094 -2.885244 0.101735555 9.872537 2.2228863 -5.662792 -4.4709897 2.6753302 -1.2331884 -3.5932257 -4.9390907 1.0020372 -2.3666744 0.5073638 2.6273556 -1.884694 1.330152
2418 -2.8779597 -4.7279015 1.7920125 1.2422296 -7.480434 -1.9311816 0.0006881326 -1.2647358 0.042430647 -9.665189 -1.9430007 5.207111 -1.669814 0.46451268 -3.3469276 -3.0299556 1.7232109 -5.8321686 -3.9430165 2.2468128
540 0.37299967 3.9761968 4.468371 -8.444038 -2.2591326 6.1285453 -1.4695467 0.3108013 -1.5404925 2.027933 3.185158 -1.5380569 -5.980037 -3.820691 -8.065787 -0.13468908 -2.2468262 1.5363814 1.3361666 -1.568112
348 -3.1501381 4.8251057 4.541192 7.7501144 -0.5686182 -2.5312645 -4.557111 1.6786045 3.2991014 1.5084165 -5.2433214 -1.832094 2.8805845 0.11029865 2.8159811 3.2123792 5.356003 -7.5561256 1.7404466 -2.1879966
1041 -0.074185945 -1.0597479 -8.687255 5.250219 2.0138078 1.3238037 -2.1179678 5.777315 -2.750303 5.9898353 0.02262329 5.286592 2.5883079 5.4013796 4.8339252 -1.4771423 2.5133834 -3.1713347 -3.8327985 -0.3684076
484 0.09740916 6.2495904 -4.600551 3.5045586 0.042772986 0.22300325 8.0003805 2.393664 6.2906246 -2.5131233 1.9350766 -1.9463519 2.7844417 1.2322196 -5.469866 4.3895245 5.5417624 -4.1613913 -1.9970202 -3.1141253
2144 -0.1439718 -0.07063311 -0.86234623 1.974601 10.097419 0.6387652 -2.4193854 -4.138086 4.14457 -0.6163125 7.0661936 -3.8038912 0.9045594 0.4367379 2.8897078 5.253977 6.6374545 0.18674459 -3.3434706 -2.4502077
2329 1.6641722 0.1830826 -0.72666055 3.572827 8.176147 2.4234438 -0.5310687 -5.179362 5.2089386 -0.15018927 6.9618354 -5.2218304 -1.9462807 -0.5935113 4.9631815 3.293826 6.4693694 2.716878 -2.397332 -0.11046068
998 -1.3730074 -9.178458 -0.3290671 2.1156592 3.247946 0.67760766 1.8476927 4.255767 -5.3774896 0.04664222 2.2914572 4.320199 -1.7932287 0.58597296 1.6928426 -1.6290479 1.0576565 -4.3063817 7.8174825 3.2291245
1708 1.273574 3.124736 -1.7721354 -5.6972284 -1.6946477 -0.4891123 -0.98757845 8.098186 -4.4870067 2.2586913 -0.07416386 5.2390656 4.1689286 6.212129 2.3576128 -0.90527266 -3.029505 -3.9727025 6.2104344 4.119925
1975 -5.330555 -8.614173 5.7321506 0.56188 -2.1253142 1.082858 -2.0832887 3.053631 -1.4221225 5.3399353 -3.3106573 -7.575331 -1.3853213 -6.130726 -2.052393 6.146415 -2.6891234 -2.28755 2.69473 3.6909847
1003 -1.780795 -1.7172716 -6.270819 -1.5849422 -3.9470341 0.48575768 -10.5122175 3.0060558 0.38820294 0.36263886 -4.667438 -2.0456 0.55027825 2.2238195 9.873817 0.47537163 -3.1080837 0.24374782 4.9997816 -1.4736314
876 1.4126948 -0.416119 -2.9213927 -0.20581317 -0.020277388 5.3228836 -0.018427575 6.6056495 -9.793673 5.5387864 1.5696222 0.24164173 3.8160326 0.15696621 1.0174203 2.598644 0.41512105 5.0531735 1.5834563 2.8255682
379 6.6706777 0.36969995 2.8732574 -4.8542304 1.6452563 1.4657918 -0.8742217 1.029489 0.25490186 3.6658902 -5.587738 -4.2957444 4.9427595 1.4382591 -1.3278358 -3.8666852 -2.783024 -6.1901684 1.2637993 -2.1795487
2249 -2.1264632 4.399619 4.012907 6.2111373 1.5494767 -0.9183898 2.6587923 -4.0979557 -3.1531646 -1.5371416 -3.9207304 4.9776845 5.785296 1.1985089 3.8516996 1.7564332 1.3292271 -2.1746635 -0.0007040134 -2.66857
167 -1.1602538 5.1717634 2.4601407 2.381376 -5.3338895 10.936448 -0.3291351 -1.2996048 -1.7993567 4.0475826 -1.2643551 1.7502853 -1.0855104 0.48462364 -4.644217 7.1561165 4.7614336 2.1317961 1.1772192 -0.053957816
704 0.9349978 -1.173258 -1.9216608 -1.6021327 0.7318667 4.093827 2.1920843 5.716734 -0.5926546 1.854073 -1.5730655 -2.5684178 2.0210528 1.4164299 -2.01366 -2.2913206 7.3218164 -0.78903604 4.5256324 -0.3438646
1421 -0.4940421 -5.707719 4.982016 -0.11685164 -0.8433405 -0.63864344 -1.227463 2.775122 -1.2800043 3.6833658 -4.743395 -5.534371 -0.8134079 -7.998863 -1.2027788 4.09958 -2.1738122 -2.1969852 3.4263093 4.1053195
2614 4.8768077 2.406038 -3.9325116 -0.5698442 -6.237108 4.15378 -5.202163 1.1310967 -1.1527961 8.875864 -3.544906 -1.328362 7.0857806 1.0489805 -2.1844099 0.7160445 0.08490214 3.54093 -3.018197 6.187775
2189 2.7574844 -1.6508214 4.799429 -2.3830688 -0.72915983 -0.82523763 -3.4939268 1.2126533 -1.2079712 -12.105374 -0.70020723 -3.2869003 -1.590245 -7.615511 -4.664147 -0.3080658 6.8891964 1.4127802 -3.350824 -1.395906
2243 -0.6138204 1.9092886 3.903642 -1.021099 -1.867575 1.4497372 -0.5840764 -3.568755 -3.4480748 3.2078664 -1.0053661 -3.4269307 -4.5690746 -4.588736 10.497859 -1.8700264 -3.1922135 6.4640875 7.7719655 4.6181116
815 6.4352326 -3.8220947 0.913894 1.2550303 -3.4607975 -4.299272 5.647359 -1.9954046 -2.998259 0.46325642 -2.0942957 -0.5156833 0.40746373 -4.591912 -7.27013 1.9431399 0.95096594 -3.1326928 7.0618067 -1.1995821
12 1.6183102 -1.9087421 -4.415595 4.9235125 -0.56905335 2.0768282 3.0442421 -7.5691714 4.910895 4.227378 -2.7669365 -2.5472925 0.18070379 1.9090604 4.618382 -9.216783 -1.2717074 -2.7085166 2.3191025 -4.995493
1554 -2.4181447 5.865111 -1.0899526 -1.3032963 -2.368818 3.487858 4.398071 1.3622378 -6.574654 0.72180444 -1.9232262 1.7827679 -1.7638775 2.0914357 0.520262 3.3519833 -3.583845 -6.4134455 0.102223486 -10.124849
996 0.080393136 1.4276787 5.071039 5.279341 -1.3345845 0.7102864 -0.8364556 -2.1257546 -2.9716716 -0.01667004 -2.2747085 2.1275287 1.9263259 3.7918308 2.6512783 1.7637675 4.2546782 -4.096279 1.2862539 -2.8332744
873 1.7730261 4.360182 -1.1329463 -2.7574823 -0.84006745 0.22073063 -0.66742104 6.02702 -2.8064747 2.2647154 0.38980186 7.0233393 5.3155785 5.3103476 2.3384764 -1.2379676 -2.9317234 -1.8549302 6.8336196 5.512375
1301 9.009279 3.7434413 0.6804458 1.3296582 -3.2189288 -3.8001342 -4.0691504 -1.7476562 -3.2629626 -2.867094 -1.1690192 -5.4626284 -4.7198715 -3.0072622 3.389823 3.786489 -0.25587428 -4.2154617 7.2283263 -3.4722977
1160 3.8666148 5.602149 5.653276 3.551584 0.034185458 0.9318071 9.206263 -2.152312 -5.0817614 -0.31393003 1.593568 -3.412544 -1.4838083 -3.6423645 0.77755535 1.9070712 1.4909323 0.7506709 -1.7379593 -1.7449881
1199 4.2644677 -3.2379563 -4.209449 0.32717538 -1.8869619 1.5702544 1.62009 1.3276715 -4.9180603 4.3520412 -0.9510995 -3.7715852 9.993302 5.563425 -1.6820027 3.4086864 1.0093131 -3.4057229 -5.177301 4.151311
644 -7.394448 -1.0614202 -2.3387694 -6.889491 3.2891004 -2.7180414 -1.2563643 0.82721674 -0.4071759 -1.8304046 2.4294736 -6.281194 5.5339603 -3.4322076 -3.48393 -0.9385502 7.512795 3.023727 1.5424824 1.6842222
816 0.7884031 -2.0600863 -1.6504884 -6.0481796 -5.733077 -4.2742343 -2.0747476 -4.5894756 2.1959314 1.672843 -0.57613355 -2.6758986 2.381937 -4.978217 -4.1204667 -2.492642 -3.9277594 4.38106 -0.36306912 2.752742
2305 -2.8901494 0.60406893 0.62914085 -4.4367304 -4.2932005 -1.4575485 10.566382 4.3626056 -3.4851892 -5.5569477 0.60520154 -0.50580716 -0.55432963 -5.050211 -0.3948817 0.43627954 -1.3946921 3.819841 -1.4434713 2.9863348
743 6.2092624 -5.523596 1.443026 3.93748 -4.325218 -2.5851233 6.884895 2.3957436 3.6906333 -0.8835073 -2.258051 -1.1455129 1.7933053 1.900089 3.3425345 1.78626 -7.834375 -2.1055832 1.9032761 -2.4986558
1054 3.1331322 3.6034427 -0.8985765 -1.6594727 -1.427689 1.5812542 3.3136399 -5.727293 2.9339871 5.816673 0.0015603018 0.73663855 -0.2462372 1.9398428 0.84304637 8.123088 -0.9833358 -1.0041689 7.8188896 2.8691823
809 -0.8551722 -4.983944 7.521418 -0.1830985 1.9356351 -2.1787827 -3.4289594 6.1901937 -2.4451103 -0.2949411 -0.41933325 -0.8734073 1.4291675 -4.561122 -0.17724949 0.7620736 -3.1952693 1.8172821 8.635506 -7.2442455
596 -6.8410196 -3.737682 2.421448 -4.8550014 2.5048645 -1.1651497 -2.252944 -3.5366995 -0.13602243 -1.5625212 2.3097322 -8.564264 3.6425385 -3.7424886 -1.4809109 0.15930127 5.1810656 2.4013357 3.8589911 2.1267786
2388 -1.1544006 -5.478233 -3.1826668 -6.731786 3.0471582 -7.7389336 -0.4389239 -3.0449152 -1.7634898 -1.6814556 2.4964364 -7.162532 7.4070425 -0.77199733 1.2222086 3.6561148 1.6306326 -0.0429341 -2.6307693 3.1064174
2405 -0.23968422 -2.151888 -2.3616874 -6.444514 -7.1150227 -4.0117536 -0.6202659 -2.2630317 2.3176239 1.0363137 0.7680142 -1.5357608 1.0704161 -3.641254 -5.106202 -2.547446 -3.9710097 3.220162 0.5068831 3.5752923
2250 -2.6407835 5.4331794 5.063594 8.666795 -1.4032494 -0.9179878 -5.721806 -2.4912658 3.8891904 2.0220222 -4.266414 -2.976244 4.2090282 -0.5101889 2.2923222 4.5067797 3.1718538 -6.3226924 -0.53136325 1.4311359
45 4.3809266 -0.28852373 8.160195 0.563919 -2.1563406 -5.9369717 7.058916 2.8232825 1.0751233 -3.6305635 4.570686 1.2201946 -2.452219 0.824877 5.0539584 -4.8529477 -6.1839833 -0.794941 -1.1226547 0.9731222
2555 7.0116305 -0.14706157 3.3605583 1.9421574 2.9672532 3.6378872 4.0583963 -0.93547934 -2.0183132 2.3566163 5.0976725 -0.8244789 2.4292605 7.3526144 4.955562 -4.8895764 -1.3825281 -0.56592065 2.5116055 -2.0294511
2227 -0.57638764 -2.44789 7.6939425 -0.13994849 -1.1648254 -1.5848881 -1.5515053 3.5020397 1.0898758 -0.91228753 -4.4880915 -1.0598507 3.765341 -4.868588 -1.7058771 -3.801697 -4.9834337 -1.5863775 12.113809 -0.79320854
438 -0.15636559 -6.9774194 3.4342518 -5.023706 -0.392903 -7.018657 2.2623923 -8.476645 -1.2542127 -0.5668236 -5.3942122 4.4139843 -2.3754308 -3.74049 -2.5806377 -3.025653 -0.10520948 -2.5840487 0.8761296 -8.392085
251 0.7535386 7.131383 -1.010557 -1.4006873 2.1939278 1.4527835 -2.035772 -3.5853693 2.9989803 0.94740003 0.9621625 -2.3867178 -1.9732647 -3.1975493 -0.9590584 2.3131387 -0.58283126 -2.6518483 4.8575163 -0.32436863
1737 -1.7382439 -3.5523317 -6.091891 0.8055641 4.931085 5.8864536 -5.953365 -2.849745 -8.306994 3.5850573 1.9877563 2.7062771 -0.13139795 1.4741963 -0.93666786 -2.1621313 4.7233133 -4.386662 1.5138592 4.389928
2228 1.0431966 -3.515033 6.636095 0.90675527 1.529359 -1.806517 -3.3455553 5.3439384 -3.1143348 0.13786876 -1.6629152 -2.9602501 3.984873 -5.8920436 -1.4547403 1.8233633 -3.6035285 -0.10217109 8.581751 -1.5671599
1183 1.811927 0.33841854 0.35029534 -6.616693 0.880582 -1.5950478 -2.7398407 1.4364134 -6.0385485 4.2715807 1.2500173 -1.9897916 -1.8772714 0.009016181 2.5625186 -3.9785228 -3.0122952 -0.41627583 -7.6113486 -6.651415
541 0.6078668 3.9602537 4.0550475 -7.026038 2.9281125 0.08774406 1.389461 -3.5293546 1.3860153 9.883081 -2.799563 -5.7434387 3.3526473 2.4515507 1.9809631 -0.4528481 -2.045414 -2.6767225 0.9809828 -3.1542754
1671 -3.0569248 2.2846215 6.7939606 1.5338349 -5.9167175 -0.7878159 3.2909193 -4.654231 -0.8338239 -5.4775786 -0.76919544 4.29816 4.506097 -3.792159 -5.496027 2.2713585 -7.1794124 2.3611584 7.6896167 -3.455887
1664 -0.3140686 -0.78333104 -5.1804523 1.4826725 3.4925227 -0.07013487 5.363656 2.4172914 0.2880766 1.9765832 7.458079 -1.8073386 -5.636181 -7.276173 1.9850981 5.8892746 -3.4272501 3.1462903 2.6374617 1.483377
480 3.112695 -0.5652877 -3.105604 -2.0969553 2.5084362 3.2725248 -3.6182926 5.6095266 -4.987575 -1.9965277 -5.66891 -0.62318957 3.6882374 -1.8368007 10.187965 3.1688373 -6.107758 2.124096 2.9880755 1.5015991
476 1.0599445 -2.1005354 -3.2365067 0.06095633 0.56334066 -2.9395738 8.952154 2.002372 7.8285193 0.036333553 4.8147326 4.1923428 3.988691 8.527504 4.198288 0.8087448 0.82049346 3.4159088 -0.9821157 -3.5275354
156 3.126236 -4.457062 -6.6233125 4.0643153 -1.5985298 7.629274 -1.9660232 1.9005039 -1.0685046 3.5615206 0.5410691 0.8170563 1.54423 4.775233 2.03883 -0.5647664 -0.33351964 0.09335356 2.828843 2.703187
1121 -5.025617 2.4201822 1.1043825 -0.5346716 -10.685136 -2.005698 2.760144 -1.2037759 4.6738415 -4.4047804 -3.351086 2.5003405 1.3730258 -3.562233 0.21790627 0.01702611 -3.011015 6.9919505 1.9917794 3.8892407
1756 -0.68370414 0.06343939 -1.2593514 0.08425373 2.7192984 8.906014 5.085075 3.3045006 -3.0362782 4.2038665 2.776478 5.5959153 -3.1327746 -0.6452739 -2.4633963 -4.6155257 -0.8999973 0.94126815 1.9653714 4.151623
1386 -0.24565816 -2.2234616 3.151143 -2.6605494 3.5931892 -4.1693997 3.039647 2.3246748 -0.6630666 2.9944108 2.1152203 0.11074778 -4.800239 -2.961526 4.787152 6.153554 6.9753213 -0.4918796 2.0702481 4.393043
1240 2.8664582 2.8295095 1.3696619 7.7707977 1.5496005 -1.7642874 -1.4887406 -1.3149365 0.65749735 4.6306825 3.3301263 6.4037237 -2.1287565 -0.26251316 -3.3585935 -0.42667985 -4.5021467 -6.436351 2.009459 -5.871197
729 -1.6544594 6.93256 3.3022487 -3.8317366 -1.3996415 -2.003102 -1.7666785 4.0276737 0.9823763 5.511479 5.2638702 -2.7186627 -1.0287164 4.229657 5.310236 7.139638 -2.6812565 0.39393464 3.8195996 0.646633
30 -1.2243916 -3.7804904 -1.7493185 0.15002306 -5.0228887 -0.06471505 -0.09726788 5.096642 -9.153406 -0.5805207 -5.589075 5.811816 3.1315174 0.39240524 1.4619142 -5.9060025 3.0973904 1.1044453 1.6060436 2.5152113
2059 1.4018834 -6.7723823 3.3276577 2.00466 -1.706027 -4.5775504 -1.7996818 -6.1956463 -7.6537366 -2.37296 -0.95956266 5.4821873 1.2141854 -2.8005629 -2.3088124 -3.2497206 -3.505913 -1.8057395 -3.283198 -5.025533
91 2.962377 1.1367193 -1.6214461 3.334177 0.44993603 -2.5112138 4.078833 -1.3164685 2.0064163 9.166791 3.7741604 -4.417316 -4.4547744 0.77264374 2.826956 -1.1139584 5.8753123 1.194523 -3.6893492 -4.366495
1046 1.4088497 0.076825306 0.27904323 3.114421 1.4696896 -1.0038701 1.9250168 -0.7623516 0.55615324 11.024001 3.5831492 -3.6081192 -7.4807243 0.75558954 2.5760462 -1.7961968 7.018055 0.10714384 0.31639436 -6.835577
284 1.4543504 4.0067706 -2.7996101 1.2274423 5.8945227 -3.4139302 -3.9709797 1.4015596 -0.6189071 4.4168024 3.509 0.8361241 0.057290994 -8.514168 3.1063578 -2.7006063 -2.6637564 4.236764 -2.5488732 -2.145287
2094 3.6753216 1.3306731 -2.299036 -1.8051796 -1.0334543 1.8159435 -1.5792184 4.838372 8.693723 -2.671358 6.3645325 -8.26481 -1.3587072 1.518201 -4.5549874 0.26163894 2.3576503 -2.8985105 -6.7487936 2.0934658
1728 6.8800573 -0.96706533 0.16870448 2.226162 3.8753095 6.258209 1.4287897 2.3034396 -5.633468 4.2788434 4.405439 0.7846256 3.7820349 7.637866 1.9179436 -5.9109983 -0.6073209 -1.8646337 2.2821963 -1.585029
2114 -8.65966 0.87574905 3.6906157 1.7916715 -0.6903414 -0.06337444 -1.4198649 -2.2400584 2.1271753 2.091223 1.0503868 6.144885 -6.6459947 0.30332023 6.00435 2.139716 -6.7095623 -6.0696797 2.2631783 3.6744685
402 1.0541793 7.2761683 -2.50623 -0.10895845 0.72059876 2.354177 -1.6705309 -2.177201 3.535491 1.2253375 0.40781856 -3.3625383 -2.597572 -3.2643204 -0.67443264 2.8413475 -0.46288896 -2.5178192 4.8418226 -0.84364015
1909 -5.048709 -4.4421053 0.14883848 -6.4680924 -3.354976 -0.7918951 7.904175 3.463063 -1.5844847 -8.131885 -1.5988458 3.7722373 -1.2507578 -5.4583516 -3.3823388 2.4113705 -4.834017 1.2637271 -2.0913217 2.8614402
1750 6.2952666 -2.267163 -3.1555824 4.289028 3.347046 -0.39251626 0.38527495 5.411088 -4.4332395 -0.1766557 2.4040291 3.8337684 2.1275985 0.13182305 3.6063383 -4.7477064 1.2608745 -2.1914206 1.4164453 7.1198792
2679 0.01760945 -0.3639943 2.6013741 4.7324595 -0.40153855 -5.4456096 1.9959478 -2.191115 -4.052305 6.2080317 1.2495422 4.256037 4.7865176 3.9859154 -0.18353412 5.70972 7.4419518 -2.621887 3.2186007 -0.20250134
1507 1.2667581 -0.20410983 -0.25262198 -7.352518 -5.2208753 3.6985452 -4.3938637 -1.1071061 3.0959134 -0.98688716 -4.718577 -3.206371 -0.41600642 -0.013353462 -0.3456893 3.1030247 4.1596584 4.330424 2.3410726 -0.9084726
327 -3.5636895 -1.5420897 0.5714158 5.6970315 3.167474 -1.9562151 1.5599735 -0.31098032 5.1049466 2.1718643 4.6210713 0.42339712 2.0799444 -1.7308286 5.685217 0.07522152 -3.9220269 2.6511362 4.645231 2.2345934
2667 1.8641257 3.5947707 6.3443966 -1.9828044 -1.8395797 -4.485054 6.389164 0.37828577 1.6849996 -2.4503434 1.6303847 1.2897422 -2.3306525 0.7302966 2.9356878 -5.9181633 -2.0811815 -2.1081076 0.24840629 -2.6532848
1101 2.2468848 -0.96318275 -2.482793 -0.7970656 3.4952137 -0.70668226 2.360954 1.0173519 -6.041065 -0.15314266 5.2292986 1.961739 -3.1611187 -2.5812912 -1.5053527 7.5625896 3.535099 -0.9687766 0.4906037 -2.8585112
725 4.302385 -2.8993638 -2.559204 -3.7799053 -2.7908723 -2.8546464 0.026030678 -1.7515839 -2.6851459 -1.5185297 -7.790975 -5.8053174 1.6080087 -7.490859 -6.21598 -0.14144231 2.1921477 -5.749187 -7.2662005 2.230283
2356 -3.696202 4.138795 6.4282117 8.5748005 0.42787355 1.3468508 -1.0658556 0.30169454 3.6497672 -2.8930638 7.3710084 -0.009956935 -4.7012525 -4.4200954 -0.4512067 4.960964 1.1822973 -1.7745985 0.47630188 5.5018888
2282 -4.617903 -4.9459414 0.20675212 -6.517813 -3.9262872 -2.8847244 -4.483441 -7.126179 1.0565978 -0.747778 -1.8415177 -4.1768694 5.035633 -5.4654284 -1.2710232 -0.018495629 -4.5461497 7.8460226 -2.2298634 2.1945398
2112 -2.0877078 -2.4998682 -1.4638435 -7.2554574 -0.91742724 2.3379927 -4.3930106 -2.296772 2.8984292 0.14298138 -3.427753 -1.6739565 -0.81936 -3.2687175 -4.9401164 0.98442876 6.805951 3.8352687 5.5389667 -3.0170405
2485 -4.6001983 -8.472169 -3.1581688 0.46338266 0.6941522 2.6497858 -5.4772253 -0.510105 2.1091096 -0.6972455 -0.7206575 -9.349263 -0.28852713 -3.0587337 -7.2426934 4.5883207 6.0647516 -3.3686922 -2.487225 -6.172621
1093 -0.89940727 1.1693176 -0.0434917 -2.2182343 2.5065618 -1.459502 -4.1555095 0.21563457 -2.284116 5.5610204 5.2875857 2.4693336 -0.044937104 -5.262073 -4.315241 2.6205165 0.29005373 2.9830568 5.973599 1.5580033
2063 -3.998481 -0.30344146 0.16951883 5.2463164 3.3325107 -1.2219162 0.87893516 0.253797 5.1960526 2.7973998 4.78947 0.36977392 1.5641773 -1.6162813 5.5425906 0.7320692 -3.9795077 2.3215413 5.5825825 2.5235493
2501 0.39224625 6.741529 -0.7166867 -7.454459 1.6037185 -1.7390062 -3.6884944 -0.26761433 -2.7921822 -3.3088267 1.0800862 3.8144143 -2.1300719 -4.6879296 3.7136512 2.352395 -5.7980733 -0.095075496 -3.140479 2.5325787
2077 0.57868046 3.8727112 3.0471325 -3.7229068 -1.5834514 -5.6961727 8.368384 1.0125622 0.6920306 -1.9372692 1.5931845 0.45887008 -0.97002923 1.8188694 3.897088 -6.094454 -1.8653632 -1.9510113 1.2389737 -3.3869913
1214 0.06286075 -1.3169017 -4.955342 0.88941413 0.6219282 3.8544664 3.851736 3.192453 -5.805801 2.0191834 0.9400348 -3.003661 6.7935524 4.4325213 1.9188232 4.6986885 3.415646 -2.3447266 -3.039604 7.0352445
498 2.933174 -6.0454183 3.6042337 -6.648704 -2.6192596 -1.7944417 4.753367 -4.0749607 -0.6259989 1.08164 -7.517828 -0.25427473 -0.8124331 -7.4696236 -8.866643 -2.5843356 -4.1296515 -2.9520273 -1.8262069 -0.9037948
1928 3.8310313 -1.4768481 2.6463091 0.29683074 -9.359358 -3.9656243 -3.8455305 -1.710714 -9.02973 -0.14539628 -5.2355695 3.8274946 -0.48504764 -5.740382 -4.0124216 5.1883345 -1.3135743 -0.4761979 4.890694 1.1794177
1262 3.2501678 0.99519926 -6.430646 -4.6235566 5.0079346 3.2663174 -2.1506367 -1.0349096 5.352878 1.6646875 -1.2288091 -1.5166755 7.3420405 2.8581405 4.4133725 -3.871266 2.1413162 3.0660152 -4.68367 4.752324
1396 0.20406668 -3.4511952 6.812593 -0.32664642 -0.17252417 -1.5334924 -2.0727239 2.9754736 -1.458188 1.3172653 -4.395707 -3.9025326 1.8659133 -7.315738 -1.0449815 3.0521479 -2.850144 -1.1840752 5.136141 2.6157336
2530 -1.305333 5.4928403 -2.9295752 3.8195772 -5.9361515 4.497694 -5.8400106 4.886604 -1.7510939 5.3731313 -1.7951119 2.6464338 0.43775976 -0.18635122 -0.2101636 -0.8565356 -2.600066 -1.1942186 -3.8428144 4.5821805
311 -0.055023875 2.4443743 5.0471663 -4.101836 -4.005312 -5.005095 -7.099139 -1.5108572 -2.4684062 -0.51391333 7.1922903 1.3794026 -1.4623243 3.5500064 4.7585006 -0.12887318 3.2043626 4.517407 3.7099264 0.11143068
898 0.16594675 1.3767866 3.877153 2.8752 5.368775 2.1911755 3.1438293 3.268948 -2.35063 7.013953 -2.7816424 -0.03443055 0.29626286 -2.696906 1.5404918 8.859097 -1.6813331 -3.8788037 0.47557 -5.3829083
1919 -5.558177 -4.904136 2.182419 -0.22638603 -0.47109303 0.8453682 -0.9141659 -2.270659 -3.6505618 2.1782916 0.5487083 -7.2466636 0.12885776 -3.9473934 -5.135685 4.1440034 -0.4026352 -2.959627 -3.154642 -2.231474
465 3.4290845 1.7967892 6.8596554 1.970377 -12.11066 -3.702454 -1.4303725 3.3216217 3.200462 -2.461265 0.97900456 -1.0303185 -4.315495 1.2391654 -3.3952954 6.4085326 -2.6255198 -4.124544 3.4724596 -1.6997176
1944 4.3240266 4.788225 -0.055250272 -3.7517903 -3.1679306 -1.2920631 4.470891 -2.1222053 -1.5127647 2.420668 0.009453568 3.8299046 -3.7034307 -1.2815871 -0.84234375 4.2751102 1.4608136 -1.1427165 0.9763492 4.4631014
2123 3.9219058 1.5609859 -3.2704844 3.5275075 -0.52242917 -2.1955154 4.131091 -1.5287693 2.6044657 6.747033 3.9500153 -3.806697 -2.7095664 1.2297641 3.3711295 0.5216505 3.1182146 1.3492645 -4.553927 -3.1746607
895 5.8168383 2.3867927 -1.2454501 -2.8849452 0.4727475 -4.382775 0.58613634 2.467838 -2.5404077 2.4169593 -0.94035447 -6.0711484 2.871596 -4.74962 -2.6477811 -0.08926961 6.100912 -0.2884952 -2.6721094 0.073372155
1647 0.74787927 -0.8968453 2.3027148 -0.83632463 5.2214637 3.0302753 1.8187112 -2.7268667 -6.071478 4.968407 -5.6492596 -0.42219892 -0.8529367 -3.9735672 2.6259093 6.436102 3.025959 -1.6456794 5.274573 -4.1642675
2 2.200662 -0.33718768 3.1171427 4.87281 -2.943775 -1.2909526 2.609787 0.5306102 1.0328262 5.4011703 4.0046997 2.1671362 2.10978 3.8132093 7.147617 -0.0091707 -6.4328504 8.562904 -0.40613222 -6.883926
2526 -4.209661 3.2438848 2.2596 -2.8920882 3.7501595 -3.3366165 -4.020951 -6.934591 -2.4590385 4.061846 0.07274115 0.4700147 1.4310582 2.7586043 4.5474305 -4.3444386 5.6568546 -6.2980227 1.9072886 2.8518593
1693 -3.566028 0.5264146 -2.3827403 2.2168648 5.4074 3.987091 -2.243631 -6.293154 3.1277878 -1.7594268 -9.2697735 3.5172913 -3.4810245 -3.4135158 5.1073165 1.7925696 0.3593331 -8.731443 1.0025595 -2.7428782
1213 1.59203 -1.8877363 -2.8345087 0.2491073 1.5272394 3.8540812 3.6565232 2.237308 4.348374 3.99934 5.7301245 -3.5746145 -7.025153 -5.2447166 2.0415378 2.8871734 -1.9159949 5.1364293 5.8348613 1.3745034
2503 2.491615 1.6355357 -4.3180394 3.7727907 3.7286422 2.6825426 1.0069898 6.134882 -3.294072 7.385966 -2.3557663 1.8260984 -3.4098997 -1.9185699 6.5002484 -1.6665828 -3.4070885 -5.960956 3.079327 4.2108335
1143 -7.9946737 0.06387914 5.1909103 0.38799274 -2.0353127 0.4573996 2.1401742 -6.7364326 2.2167115 4.0154033 1.5465409 0.7596116 -2.0304074 -1.7895002 -5.429609 3.159875 6.2824373 4.774202 -5.235633 -4.348971
1174 5.0291705 -3.7625217 1.7223642 -0.10139375 -1.4176463 -8.430813 4.7388296 2.9706216 -0.25245726 -1.853242 -3.6114528 -0.98383594 0.6166054 -5.179381 -3.6521919 1.5373306 -0.34021693 -5.7303967 6.5771065 -1.8351189
792 6.2339687 1.3562019 4.386299 0.56173366 0.14210333 1.2699634 6.6275997 -2.1422935 1.6269416 -1.0628535 5.8601875 0.085456654 -1.2892889 7.958603 7.3388658 -3.6048696 -2.3335514 0.88536847 3.5763516 -1.9796698
1851 -3.0888202 -8.678387 -3.9406378 -3.025162 -3.1256273 2.0426233 -7.9437532 -1.3723695 3.9399002 -2.9436004 0.78322136 -3.9607456 -5.361882 -1.3638719 -6.1950493 4.899458 1.9587427 -3.154229 -3.8302097 -2.3461342
2597 -0.8884688 -2.9271922 -6.1251545 -2.0076778 1.6812432 6.884428 0.74670625 -0.20597972 -7.4486504 -1.2514849 -1.0040426 7.4269648 1.3187946 3.231817 1.8243849 -2.7215931 0.9323668 1.1188773 -5.4992213 -0.04463056
1535 -5.1313367 -5.802259 -0.21358408 3.6604445 -2.19528 3.388156 -0.6303715 -8.362143 0.052733794 -1.8846028 -4.2860065 -2.0817487 1.1741664 -8.526588 -4.813826 0.9733239 4.899699 4.676336 -4.3096476 4.039427
148 -2.8061073 4.2242937 2.19836 4.936162 -4.6246605 1.1036593 -3.3274748 -8.159139 -4.026715 0.5780934 -2.0950277 2.8903074 -1.2250389 5.136581 5.180176 3.3183792 3.3857334 -2.1387796 1.0017889 -8.146614
332 3.8313138 2.2857673 0.8120655 5.6625814 -0.308239 0.5954886 3.1015291 -3.1311023 1.5033134 7.0477815 5.413973 -1.250768 2.065548 1.9736999 4.2857733 1.745874 -1.7948698 7.7139015 0.9145113 -4.3135266
1051 -0.27400666 5.256016 -0.08299006 1.5575563 -1.5409034 0.55329907 0.083834045 -8.804383 2.627719 7.840756 2.3831828 0.933707 -2.7740128 0.9742709 0.11788217 -2.9409165 1.9330965 2.2717595 -2.7082179 -2.381893
1758 1.9381564 0.22729793 -4.507198 -0.4219046 0.4510671 6.6269736 3.536947 2.0821896 -4.798233 2.404426 -4.2267127 -2.3461244 -0.31411144 -1.1222482 0.64420193 -4.8788843 -2.2993565 -5.888946 4.307784 5.199373
1996 -3.519834 -3.9332829 1.195132 6.1703734 1.4293511 -3.397921 3.1597 0.07910939 4.6450624 0.93076664 5.7058625 1.4983573 1.2819467 1.3593885 7.0906463 0.20356242 -3.9558203 2.96214 3.457645 1.8890345
537 2.174478 -2.5923266 3.4639916 -1.3060983 8.378331 0.17248058 -3.1220298 -3.6483674 -2.6264575 3.1471272 -0.72154343 0.5142802 -2.3848748 -4.9290347 1.5915269 6.9319468 -3.0511389 -5.073301 0.8523517 -1.6626341
2290 -1.8848556 -1.7465879 -2.4064932 1.1093184 2.3191893 8.861263 -1.1076895 -7.197516 -1.4820933 3.1489885 -0.636564 0.21424605 -0.08853851 -1.3519851 -0.08930617 2.0585127 -4.9546566 1.1689359 -0.69501704 -5.2505918
1094 1.6947687 -0.08157886 -0.30347806 4.7515125 3.062259 4.130877 -2.7720184 -0.59289515 3.8855007 2.4196768 -0.25474656 3.5472913 0.05080507 -0.7534677 -3.7517486 -1.4273727 -0.8988743 -2.2316854 1.2179152 -6.183159
2024 2.1726801 -9.039306 1.7631474 -1.0395919 -3.326617 -5.070652 0.8844899 -2.2339597 3.4231951 4.532678 4.132467 -1.7519104 -3.8287926 -2.5496962 -7.5481505 -2.4392147 -3.173825 -1.9507335 5.7154894 -2.794351
1579 -2.333979 2.0545287 1.9851384 -3.4293385 0.8700644 -1.0609828 -2.1875088 2.7242665 -7.11755 4.287942 2.7709415 -1.6108303 -0.437483 -0.29636744 3.0995092 -3.5532055 -3.4972823 0.0009781527 -8.331691 -6.6667337
271 -4.672962 1.5093858 4.0918217 4.4923325 -0.15518779 0.0491002 -0.0029707605 -2.6126544 0.043476135 7.1024866 6.332626 0.23124444 -6.361661 1.6665511 -2.4612594 -7.316188 -0.32544407 -5.541762 1.2808106 -5.5169053
2634 8.191912 0.21158575 2.79548 4.0461164 -1.1016841 -2.3905797 -5.0495825 -3.0444088 0.70851016 -0.20717417 1.5967026 -1.3979526 2.0471299 -1.3414322 -1.9472404 -2.585618 8.418047 1.4394032 6.055209 -1.9914318
1096 5.796171 6.2181625 4.7331815 3.438196 5.222418 2.1010063 6.8989544 -2.380214 2.433145 0.91548663 7.500732 -3.763666 -1.4348685 0.72830904 2.1678505 4.368653 4.8307133 0.38801238 5.0617614 1.5406815
2221 8.000154 -2.3029852 -4.316123 2.6585932 0.9457964 0.94248843 1.110543 2.0189214 -3.1161795 4.9054613 -0.044859055 4.6687074 -2.3113418 -3.6729524 2.6552465 -6.5091133 1.7731063 4.79069 3.5350573 2.9256299
26 3.2736022 3.5894923 0.7278043 7.6432176 -0.57272506 -3.1669965 -4.639085 0.83445865 -0.9227933 2.0984979 1.3918697 -4.189611 5.0442524 -4.2035875 0.28427845 -4.732874 -1.5559521 -2.1562304 -1.2104303 0.43992126
1320 -0.24767433 1.4603164 8.751037 5.7421036 5.185907 4.0883193 -6.8147883 -2.8393831 -1.4402283 0.34190363 2.8372164 -1.1810006 1.3229986 -0.64061785 3.6286204 -1.2370847 -3.4077833 -3.7921405 -3.5775263 0.758855
1899 -3.2783844 -3.8062634 0.41118366 -9.205193 1.7699479 5.5415716 -4.2723656 -0.80169046 -3.2295575 2.9415724 -6.514492 -2.7826371 3.5324152 4.1568465 -1.214365 1.6097742 0.8665533 -4.410065 -2.1705265 -6.6779847
2636 8.227265 0.28630418 2.7630155 3.9335344 -1.1427811 -2.4288778 -5.1779876 -3.137582 0.7090754 -0.14317463 1.5965568 -1.349537 1.9292743 -1.3877814 -1.8552558 -2.5390656 8.452225 1.3485453 6.186157 -1.9488041
560 -4.112733 3.246237 2.1466677 -2.821799 3.6938226 -3.2249746 -4.100363 -6.9951234 -2.5110068 4.033779 0.2234312 0.43370524 1.2913072 2.7967548 4.5490313 -4.342507 5.6329246 -6.3338485 2.091491 2.7523088
1945 3.4540799 5.189533 -2.820092 -4.0750246 -2.9671655 -1.4859732 3.625882 -2.0580323 -0.8454867 2.9260778 -1.956582 3.1990619 -2.872297 -1.4469166 -0.5147277 5.0911403 1.9668674 -1.6975279 1.100545 3.3108964
1580 -2.6872756 -2.7242906 1.9494045 3.269261 2.6614401 0.8783773 4.1486692 -4.824275 2.604737 -4.467279 -4.8388667 -1.6234689 -1.4807941 -3.5153162 6.2779527 -1.9517521 5.9772973 0.3194055 -5.927702 0.17023386
2100 -2.4392483 -0.92451197 2.1213589 2.3453457 -4.2769074 -0.60525656 4.8810368 -3.1042993 1.7875674 6.324114 3.2709892 -11.714952 5.1621165 0.39919063 -3.623126 0.011011561 -0.21994051 -0.6639878 0.38185567 2.1662772
1593 2.5244436 -2.414586 2.801189 -1.4297116 7.7431164 -0.3682632 -4.6436996 -4.0619717 -1.7391586 2.5185966 0.594994 0.56069815 -2.597868 -5.2295275 0.75718135 5.1463456 -3.040589 -4.7334414 0.39421037 -0.24298827
1881 1.1261948 0.35931084 4.656933 -0.41312885 -2.444715 2.2653165 -2.1424038 2.9165409 -1.8350872 2.2157707 3.5137267 -5.453346 2.2696614 -1.090234 -3.0086968 -4.0719533 -3.486242 2.9238226 -2.0793705 -3.0086055
964 -1.9381504 0.09262207 -1.9337637 1.5884967 3.3795419 3.2760448 -3.8887925 -2.8957174 2.6701856 -4.0944424 -4.7348275 5.079955 -3.4137 -4.858367 3.2009299 3.0419948 3.2446947 -1.6576419 1.9534081 3.683118
2109 -1.569131 -5.5364223 5.886045 -1.6929693 -0.7777887 -0.07012254 -1.6581924 0.89768857 -1.6036972 1.1065038 -5.315538 -6.8604536 -0.3501652 -9.325992 -1.4439979 3.4703784 -2.1195428 -1.367968 2.400552 5.594913
1457 -5.01811 -1.0742373 4.923243 -5.9824605 7.049933 2.2373686 -0.41819358 5.4006815 -0.6756672 -4.372712 -0.06588165 5.041235 -0.19769984 -4.802226 2.4890773 1.0914358 -5.6581216 -2.19459 6.5763e-05 3.065077
2457 0.38811663 -6.4326563 5.018212 -4.4363937 -2.4416995 2.0195782 -1.3269398 -3.4561548 -3.2178133 -2.1864479 3.429598 -7.0268936 1.7044758 3.2118368 -2.406099 3.1375587 6.8665586 -0.04190629 -0.4796981 2.5309432
434 -5.4385986 1.2878267 -1.0239427 0.9109233 3.0316916 3.3218985 0.26129717 -4.6867447 3.5974374 -1.3638122 -8.112613 2.059869 -4.515352 -3.2701101 2.1704934 -0.81383204 0.5566908 -8.641864 0.73533195 -2.9079309
